%YAML:1.0
---
opencv_ml_ann_mlp:
   format: 3
   layer_sizes: [ 96, 60, 30, 15, 10 ]
   activation_function: SIGMOID_SYM
   f_param1: 6.6666666666666663e-01
   f_param2: 1.7159000000000000e+00
   min_val: -9.4999999999999996e-01
   max_val: 9.4999999999999996e-01
   min_val1: -9.7999999999999998e-01
   max_val1: 9.7999999999999998e-01
   training_params:
      train_method: BACKPROP
      dw_scale: 1.0000000000000000e-03
      moment_scale: 0.
      term_criteria:
         epsilon: 1.0000000000000001e-05
   input_scale:
      - 3.4014466966693874e+01
      - -2.2435576083857778e-01
      - 5.3006459547866115e+01
      - -1.6472896981235388e-01
      - 2.9154033956602515e+01
      - -2.1003522426605561e-01
      - 1.2200900747557888e+02
      - -8.1732070514441701e-02
      - 1.8565697511978038e+02
      - -7.9630888028456026e-02
      - 9.4262974138524172e+01
      - -1.0576634726773751e-01
      - 8.4092729871426801e+00
      - -5.8696749746106880e-01
      - 7.2369832757441834e+00
      - -7.4929709750911544e-01
      - 4.1095784958649499e+00
      - -9.1112470513491672e-01
      - 1.6743427187125686e+01
      - -3.4183981010284420e-01
      - 2.9679645251298044e+01
      - -3.0551365258086094e-01
      - 1.5965362733429739e+01
      - -3.5264740440622250e-01
      - 7.3843141178894873e+00
      - -5.6803857677250813e-01
      - 1.5100904384052251e+01
      - -3.7583641982334881e-01
      - 1.6032955728568364e+01
      - -2.6420192073169141e-01
      - 3.9786772235076278e+01
      - -2.3675369271514665e-01
      - 5.2808465915392787e+01
      - -2.4900990079401186e-01
      - 2.1326272044172555e+01
      - -3.1317383562809997e-01
      - 3.2285954641258394e+00
      - -1.3189304381407518e+00
      - 3.2245723595247355e+00
      - -1.4092919249174138e+00
      - 3.5171047864862417e+00
      - -1.0211259306507041e+00
      - 8.9504605884647717e+00
      - -6.7920549073345238e-01
      - 1.4780449907742467e+01
      - -6.3045054068658646e-01
      - 5.7628008367743933e+00
      - -8.8440241479959503e-01
      - 8.8064974131028357e+00
      - -6.0871022044838208e-01
      - 6.0757628010973841e+00
      - -5.9297275203928068e-01
      - 5.0145848663218819e+00
      - -1.6031171717101040e+00
      - 1.0492105860610248e+01
      - -7.1210429312022594e-01
      - 1.8406603827103368e+01
      - -6.7829587123537016e-01
      - 1.0175890056571035e+01
      - -8.0641105322904327e-01
      - 3.5444168753565549e+01
      - -2.6109781811438415e-01
      - 2.5372487436491291e+01
      - -2.5249890639504247e-01
      - 1.3549227328277334e+01
      - -4.1695669900837978e-01
      - 3.4154585807568864e+01
      - -3.3220126379276593e-01
      - 5.9762004728078715e+01
      - -2.7842338868714411e-01
      - 3.4480959688689367e+01
      - -3.0688282695930563e-01
      - 3.8981928189577832e+00
      - -1.2698368314302435e+00
      - 3.8694699900797573e+00
      - -1.4281118758067288e+00
      - 3.9371744147567478e+00
      - -1.1611920056238914e+00
      - 7.2187302870568910e+00
      - -8.8672153759832095e-01
      - 1.2036908493613781e+01
      - -7.8377116673102487e-01
      - 3.9581863183593340e+00
      - -1.0559610799609243e+00
      - 1.2155959967599628e+01
      - -4.5585500171733168e-01
      - 1.0176177166167758e+01
      - -5.0735402451348843e-01
      - 1.1770523382398496e+01
      - -4.1161251819450811e-01
      - 1.8715552524481350e+01
      - -4.1857842250642296e-01
      - 2.6550360239823259e+01
      - -3.7260177487821211e-01
      - 8.1418110492538158e+00
      - -4.5113540259962726e-01
      - 6.2047892815808012e+00
      - -6.9277045187036590e-01
      - 1.5406821910225865e+01
      - -3.7622770990387078e-01
      - 1.6944128485450584e+01
      - -3.7453555205770422e-01
      - 2.4041460559100976e+01
      - -3.5118604680163190e-01
      - 2.9695674070821493e+01
      - -3.5945763982212614e-01
      - 1.3380872576377730e+01
      - -4.6595272384271524e-01
      - 3.5852121188313566e+00
      - -1.1802901716591772e+00
      - 4.1290819181194616e+00
      - -1.1387652629655924e+00
      - 3.4990441631257547e+00
      - -1.1650502086530063e+00
      - 6.6970425373910931e+00
      - -8.7036954221389151e-01
      - 1.1541631418343217e+01
      - -7.8902995160199263e-01
      - 5.2468351999521259e+00
      - -9.7179599443547149e-01
      - 1.8869671579963665e+01
      - -5.0220705358594964e-01
      - 5.3759612538236105e+01
      - -1.3916128326319091e-01
      - 2.6272912480558656e+01
      - -2.4617373338567972e-01
      - 3.3718861063521160e+01
      - -3.0100695455044596e-01
      - 4.4089952376140033e+01
      - -3.0747938813820419e-01
      - 2.5325114095576385e+01
      - -3.9702116128067311e-01
      - 4.6659326568030695e+00
      - -7.9535316195887884e-01
      - 5.0771035776373594e+00
      - -7.0559087562083633e-01
      - 4.2067445046170988e+00
      - -1.0056298128131524e+00
      - 8.7517343355425936e+00
      - -8.0892377886900546e-01
      - 1.4971607497600649e+01
      - -7.4832464117424624e-01
      - 9.4085275301667473e+00
      - -8.8384273680668612e-01
      - 4.0392666623982914e+00
      - -1.4587913395675915e+00
      - 3.3763477255916730e+00
      - -1.6173502109647822e+00
      - 4.3149255725978071e+00
      - -9.9205620722685484e-01
      - 8.0229137187988897e+00
      - -7.4158273278937581e-01
      - 1.2599591426986377e+01
      - -6.9951654282192277e-01
      - 4.1870123539615367e+00
      - -1.1005464675849870e+00
      - 1.2061480900506048e+01
      - -4.4709539462712972e-01
      - 8.6880779131180432e+00
      - -5.1630693406325001e-01
      - 1.1899103993081930e+01
      - -3.1012885850300748e-01
      - 2.2720219229645590e+01
      - -3.0404157906826157e-01
      - 3.8521780387363421e+01
      - -2.8830689915066271e-01
      - 1.2222021311444447e+01
      - -4.0801268100432342e-01
      - 7.3384297895710011e+00
      - -6.1611357972261416e-01
      - 5.6223880971948859e+00
      - -1.2321932320775673e+00
      - 5.6251630559439096e+00
      - -7.8574328056401044e-01
      - 1.9028321427421368e+01
      - -4.0424720698683764e-01
      - 2.7630892033934582e+01
      - -3.5452821249269334e-01
      - 8.7898555733920425e+00
      - -4.9196293699889421e-01
      - 5.4441556649603093e+01
      - -1.4581168494801969e-01
      - 2.3345988026073528e+01
      - -2.9055805107660321e-01
      - 3.6186521643970039e+01
      - -1.5949006513190656e-01
      - 7.7779384310983346e+01
      - -1.0828686107105501e-01
      - 1.1996656052940695e+02
      - -9.8538411950953683e-02
      - 4.5121520991189648e+01
      - -1.2528551931936638e-01
   output_scale:
      - 5.2631578947368418e-01
      - 4.9999999999999994e-01
      - 5.2631578947368418e-01
      - 4.9999999999999994e-01
      - 5.2631578947368418e-01
      - 4.9999999999999994e-01
      - 5.2631578947368418e-01
      - 4.9999999999999994e-01
      - 5.2631578947368418e-01
      - 4.9999999999999994e-01
      - 5.2631578947368418e-01
      - 4.9999999999999994e-01
      - 5.2631578947368418e-01
      - 4.9999999999999994e-01
      - 5.2631578947368418e-01
      - 4.9999999999999994e-01
      - 5.2631578947368418e-01
      - 4.9999999999999994e-01
      - 5.2631578947368418e-01
      - 4.9999999999999994e-01
   inv_output_scale:
      - 1.8999999999999999e+00
      - -9.4999999999999996e-01
      - 1.8999999999999999e+00
      - -9.4999999999999996e-01
      - 1.8999999999999999e+00
      - -9.4999999999999996e-01
      - 1.8999999999999999e+00
      - -9.4999999999999996e-01
      - 1.8999999999999999e+00
      - -9.4999999999999996e-01
      - 1.8999999999999999e+00
      - -9.4999999999999996e-01
      - 1.8999999999999999e+00
      - -9.4999999999999996e-01
      - 1.8999999999999999e+00
      - -9.4999999999999996e-01
      - 1.8999999999999999e+00
      - -9.4999999999999996e-01
      - 1.8999999999999999e+00
      - -9.4999999999999996e-01
   weights:
      -
         - -1.5783928727813124e-01
         - 3.8845121466629701e-01
         - -1.9523333348972924e-01
         - 7.4184055963733606e-02
         - -9.9725637688851287e-02
         - -3.6260553870349610e-01
         - -7.6156344905007639e-02
         - 1.7147182797189586e-01
         - -2.9473450356699782e-01
         - 4.9833795680726552e-02
         - 1.6468096771753876e-01
         - -1.8420340008123992e-01
         - 1.1542552213495575e-02
         - 7.6390653295233243e-02
         - 2.1473642360423262e-01
         - -1.1103667109052116e-01
         - 1.4494944378918118e-01
         - -3.5482387082228106e-01
         - -1.4673278794695091e-01
         - -1.0846058767954561e-01
         - 1.2667568394484396e-01
         - 7.8393059631810794e-05
         - 1.9812512450638087e-02
         - -2.3410954831630937e-01
         - -9.2730735445606241e-02
         - -1.9368099785521603e-01
         - 4.9578248575562089e-01
         - 7.0491902762976802e-02
         - -4.5636366760145924e-01
         - 3.0403021054021034e-01
         - -5.0294098638833849e-02
         - -8.8114800793711881e-02
         - -1.3262878544692736e-01
         - -2.3243179685799595e-01
         - -2.0760240835422053e-01
         - 1.5987323903991937e-01
         - 4.7253606959372231e-02
         - 2.8080766342230890e-01
         - -1.0930453557887398e-01
         - -1.0839666375167306e-01
         - 1.9627338332489591e-01
         - -3.0247583185469989e-01
         - -4.3262722581718949e-01
         - 1.3385137720697562e-02
         - -7.9927501058401403e-04
         - -8.2542654489693751e-02
         - -3.6691657623704160e-02
         - 6.1133792882892314e-02
         - 2.0482436851120098e-02
         - -5.7663398792111013e-02
         - -1.5297318543566837e-01
         - -1.0132285525270916e-01
         - -1.8829591537398455e-01
         - -4.7212922316415512e-01
         - 3.6824518904255843e-01
         - -8.1173003968236263e-02
         - 2.1412978441113734e-01
         - 6.2380806510060616e-02
         - 4.9109803374566458e-01
         - -1.2475059532824560e-01
         - -3.7361575987149072e-02
         - -7.8427416741522663e-02
         - 2.6716080627135208e-01
         - 3.2561689550019857e-03
         - -7.9966726647571637e-02
         - -3.7367744842807915e-02
         - 1.3977683819634112e-01
         - 2.1165437585714580e-01
         - 7.8300211733281833e-02
         - 1.4891453494798926e-01
         - 2.4466461830829147e-02
         - 5.6805235417950774e-03
         - 4.2009185204223663e-02
         - 4.8703430751541314e-02
         - 2.9315051139344833e-01
         - -3.4592343558000643e-01
         - -1.8095345804306554e-02
         - -1.3333151069975729e-01
         - -9.9591588194387279e-02
         - -1.7160290177802792e-02
         - 3.3460028369214759e-02
         - 3.3789743641551843e-02
         - 3.4803683991898912e-02
         - -3.4161816694344399e-02
         - 1.2766330515636115e-01
         - 3.0929367067309932e-01
         - 2.1950117491606583e-01
         - 9.6935265496286824e-02
         - 1.1641993203562594e-01
         - -2.6526788299997611e-01
         - 5.0337553457614030e-02
         - 2.1861837958884722e-01
         - 1.6688174492301924e-01
         - 4.5622429528706494e-02
         - -3.0452673630230304e-01
         - -8.8861263271379193e-02
         - 1.1176400172108671e-01
         - -4.7616924458177574e-03
         - -8.5346419028909853e-02
         - -9.7252921566491887e-02
         - -1.3190471930326607e-03
         - -3.2169433326762861e-03
         - -4.8808201107612870e-01
         - -5.4520842998069093e-02
         - 2.4080327756279787e-02
         - 2.4796166965954311e-02
         - -1.6205070004805355e-01
         - 1.8132123355694588e-01
         - 1.1203797080313821e-01
         - -1.9925357594871171e-02
         - -9.0480555710526725e-02
         - 1.1983155793909092e-01
         - -1.3796441920325081e-01
         - -2.3633720139708136e-01
         - -1.2098821298918354e-01
         - 3.5671043231719386e-02
         - 5.5558777918570688e-02
         - 2.2984937380657083e-02
         - -7.1815193153985532e-02
         - 5.3270465507315706e-02
         - -4.0645518213104409e-01
         - 2.9115062076186263e-02
         - -3.8122871117682816e-01
         - 6.0024356806293401e-02
         - -1.2700833218658764e-01
         - -5.2263773587628209e-02
         - -6.6184044477497154e-03
         - 5.0318980967383420e-01
         - -2.8308947202016200e-02
         - 1.3072579902159220e-01
         - 7.2323213228339456e-02
         - -1.7629943446234966e-01
         - 2.0749059313910520e-01
         - -1.9465808471599005e-01
         - 2.8664971703332681e-01
         - 6.9929666281509081e-02
         - -1.3077820549051408e-01
         - 2.7818080331815404e-01
         - 7.1120903888413439e-02
         - 6.3143715929637290e-01
         - 6.6283680323906830e-02
         - 3.2583490670707781e-02
         - 1.5657635449253640e-01
         - 2.7269129898545930e-01
         - 8.9390616662939539e-03
         - 3.7406270688696852e-01
         - 2.9386433240410448e-02
         - 6.6157163830602425e-02
         - 4.8862461596516464e-02
         - -2.0528522409219579e-01
         - 2.2463857112718436e-01
         - 3.6574013710311765e-01
         - -1.7127640529694568e-01
         - 9.0424782203679457e-02
         - 6.6274263958057160e-03
         - 2.0355851439439493e-01
         - 2.7663951781221391e-01
         - -1.7284313779805821e-01
         - -5.0839924046107599e-02
         - 2.6456372056050609e-01
         - 4.4829289899077779e-01
         - -6.1660050076243348e-03
         - -1.9791519070825786e-01
         - 5.6563777664674963e-02
         - 9.5393826906454413e-02
         - 9.1921127853673620e-03
         - -2.5513312866125737e-01
         - 3.1721503362090125e-01
         - -2.0783344568101286e-01
         - 2.0065725351594052e-01
         - 1.1576532562814280e-01
         - 1.7513994351658763e-01
         - -2.8304952930720417e-01
         - -4.3553092265635356e-02
         - 1.8540064425959943e-01
         - 4.0095312601028275e-03
         - 5.8462234635476569e-02
         - 1.5827593448993418e-01
         - 3.8289345201598157e-01
         - 3.9379241385814931e-02
         - -1.3632872816482622e-01
         - 6.4244146738073561e-03
         - 2.1316424435352871e-01
         - -5.1524238199849087e-03
         - 5.9918276534182802e-02
         - 3.1211525616027538e-02
         - 2.8850355751521700e-02
         - 2.3602012317363613e-01
         - -6.0379655375720841e-02
         - 4.5460164311794074e-02
         - -2.9249176734650002e-02
         - -3.8436968782596441e-02
         - -5.0383973012403153e-02
         - 2.3495516299476224e-01
         - 1.8539601172858997e-01
         - -6.5126499051307921e-02
         - 3.1101642976577651e-03
         - 1.3859447159915196e-02
         - -1.9544885547163127e-01
         - -2.7896642888018602e-01
         - 2.2697351172591729e-01
         - -2.0175084131365228e-01
         - -9.5189945727678540e-02
         - -1.5621027737979715e-01
         - -2.2536301206896259e-02
         - -1.2302070184464877e-02
         - -6.3481681116860866e-02
         - 9.5738800183767740e-03
         - 5.0315897958792336e-02
         - 1.2645541030924609e-01
         - 1.8503851495409879e-01
         - -6.2283362912283369e-02
         - -4.9945123835986774e-02
         - 1.7908436232137816e-02
         - 4.6136707452205730e-02
         - 7.4032596908915740e-02
         - -3.9672445355944191e-02
         - -2.1390992273598258e-01
         - 3.6500214863044937e-02
         - 3.1218446731181956e-02
         - -1.4737809590125533e-01
         - 5.7877353414433244e-02
         - 1.9542881666038969e-01
         - -1.6658507727817784e-03
         - 1.6357643522291305e-03
         - 5.8007864714924771e-02
         - 3.0777493631375958e-02
         - -7.3130395310799040e-02
         - 2.5534369623455416e-01
         - 7.2055047095365116e-02
         - 4.9639767294753022e-02
         - -1.0975878203382150e-01
         - 1.8667821875035184e-02
         - -1.1075580754618811e-01
         - -1.3485979791081737e-02
         - -9.2679199782719421e-02
         - 1.6830489180470828e-01
         - -4.3456594152812715e-02
         - 1.5027049536178019e-01
         - -6.0775271499919639e-02
         - -2.5891456905748472e-01
         - 2.7773490950272428e-02
         - -4.3589816484197394e-03
         - -7.4852657356623747e-02
         - -4.5440868898421131e-02
         - 5.8422039839796797e-02
         - -1.2851219573239578e-01
         - -9.9374184018895029e-02
         - 1.6094451429769469e-01
         - -7.4550634611066660e-02
         - 1.9363646478527577e-02
         - -6.7854665911116538e-02
         - 3.6731935294566057e-03
         - -2.0951950553902793e-01
         - 6.3281504661641674e-02
         - 2.8425385799606023e-01
         - -2.6410571428544233e-01
         - -1.1108812889199186e-02
         - 1.3165740141918419e-01
         - -3.1312963024320552e-02
         - 1.0015767772542084e-01
         - -5.8098929455951805e-02
         - -6.3276115548403275e-02
         - -1.5507241750660294e-01
         - -1.6598335747051111e-02
         - -8.3859806545095478e-02
         - 1.5880951001134888e-02
         - 4.1254335504636794e-02
         - 5.6830206080200202e-02
         - 3.4115653688290733e-02
         - 3.7424877233380805e-03
         - -7.3411107621226129e-03
         - -1.1915564268330812e-01
         - 1.6055672544747563e-02
         - 4.1810729800002486e-03
         - 1.2621479218775577e-02
         - 1.0090845425461306e-01
         - 1.1603327638777459e-01
         - 2.1345314769583616e-02
         - -1.6014449748377738e-02
         - 3.2571701642658379e-01
         - -6.5203073839366063e-02
         - -8.4517432732037046e-02
         - 1.1624306198073638e-02
         - 2.1386880893765681e-01
         - -5.1289206558237169e-02
         - 5.9391189234560215e-02
         - 9.2946075666496472e-03
         - -4.4763843662880803e-02
         - -6.2558779672646794e-02
         - 7.1662637034038149e-02
         - 4.0532615873092349e-02
         - 1.5240196096359468e-01
         - 3.1912113413121682e-02
         - 6.0531913560834254e-02
         - -1.3196060672745361e-01
         - -3.4900132643497124e-03
         - 4.4614060761876545e-02
         - 3.1019326145613269e-01
         - -1.9630529412508901e-01
         - -1.9434902550252167e-02
         - 7.4327023727949859e-02
         - 6.9727273108148594e-02
         - 2.3312650062164447e-01
         - -4.8042366548297237e-02
         - -1.2596216962647500e-01
         - -5.3306727752118047e-02
         - 3.1835989399344822e-01
         - 5.6109374099451971e-02
         - -2.3919685267652761e-02
         - 2.7130724247116067e-01
         - 8.3565208870807400e-02
         - -1.5464491828103739e-02
         - -8.1593754431497564e-02
         - -5.3152264039559340e-03
         - -2.1470590902823916e-01
         - 4.4789052194242777e-02
         - -8.0850057963891067e-02
         - 2.2481780849878952e-01
         - -6.2960919790439981e-02
         - 2.2118712413838025e-02
         - -1.2795699091522566e-02
         - -1.3491872224741660e-02
         - 2.2967223170971932e-01
         - -4.0292382343382185e-02
         - -2.0865894329484280e-01
         - 5.7099543903247583e-02
         - -5.2676521012031255e-02
         - -3.7858707579378875e-01
         - 5.5782662806184796e-02
         - -4.5469409368010374e-02
         - -6.3752669235428203e-02
         - 7.5685440697647210e-02
         - -1.1630082011391862e-01
         - -1.5326756315940041e-01
         - 7.8164507932916349e-02
         - 1.5148345452108045e-01
         - -1.5670194366610251e-02
         - -9.1595149097756845e-02
         - -1.4535587087852223e-02
         - 3.7461964088180555e-01
         - -1.4217779575873737e-01
         - -5.0958028599237558e-02
         - -4.9750178918719516e-02
         - -1.9725548443336550e-02
         - 1.0445614858066858e-01
         - -6.0792124690172845e-02
         - 9.0550594870940901e-02
         - -9.4946644396611546e-02
         - 3.5539276965083931e-02
         - 1.1487660601378549e-01
         - 1.2181647879007716e-02
         - -7.1528946677230434e-03
         - 2.0285437084482834e-02
         - -1.7161146114070036e-01
         - -1.0177585762049352e-01
         - 5.7976321835038459e-02
         - -5.6697567827310391e-02
         - 2.2433604249288844e-01
         - -5.0679187565715773e-02
         - 2.1346335392016683e-01
         - -1.3528594274196210e-01
         - -9.4723778723475469e-02
         - 5.8241386213524780e-02
         - 2.1761985988708965e-01
         - -8.6909315805128806e-01
         - -1.4887542668070389e-01
         - -5.3291544805698123e-02
         - -1.8460627138922114e-01
         - -9.2611462866104943e-02
         - 1.0531541343992403e+00
         - 2.5769489367344312e-01
         - 2.9670050419917265e-01
         - 2.7548585688490340e-01
         - 4.9495482701329158e-01
         - -8.1197518249396777e-02
         - 7.7671822436847920e-02
         - -5.7043248114543976e-01
         - 5.8162738741814678e-02
         - -4.6478001039647387e-01
         - 3.4072129240789334e-01
         - 3.8720409226547381e-01
         - -2.3979886650649682e-01
         - -1.9625859773131743e-01
         - 2.3033175342192774e-01
         - -8.8815291171709707e-02
         - 1.1949788294013682e-01
         - 8.9726662092940501e-02
         - -1.1804486482019825e+00
         - 1.7608398576569809e-01
         - 2.7272168977717387e-01
         - -1.1607454810663718e-01
         - -3.5472665216736310e-01
         - -2.0177684693201098e-01
         - -3.8363440807426480e-01
         - -1.7377957841631222e-02
         - 1.1192252021475552e-01
         - 2.6542559393510401e-01
         - -2.7038417093613665e-01
         - -4.7982215835502745e-01
         - 1.2967565739506297e+00
         - -1.0105516814572280e-01
         - -5.2295533504135162e-02
         - -2.2173483371659072e-02
         - 1.6551843768664815e-01
         - -2.3631591384541080e-02
         - -8.9636709164244710e-02
         - 1.9727878287707104e-01
         - 1.3744995149684150e-01
         - -2.8755742154410269e-01
         - 4.8192830248347800e-02
         - 4.6594713620335038e-01
         - -2.4740582613063994e-01
         - -5.4180389294127440e-01
         - -7.1919943074369899e-02
         - 1.9223454312172115e-02
         - 6.5219649561688978e-02
         - -6.3730404134118190e-01
         - -4.8116751498999100e-01
         - 7.3642661066159076e-02
         - -8.8884455691209285e-02
         - -9.1666942426541526e-02
         - -1.1888072044393580e-01
         - 4.2520178320297264e-01
         - 1.2914118993740892e-01
         - 8.8336637939843074e-02
         - -2.2044288646925703e-01
         - 1.7525708059312156e-01
         - 1.0295883749386729e-01
         - 7.9332448571599254e-02
         - -2.6029356774516715e-01
         - 5.5980885007704495e-01
         - -2.3125927003903207e-01
         - -1.3177785956749039e-03
         - 4.0270261365981708e-01
         - -4.3302646358464614e-01
         - 6.9342769897572187e-01
         - 3.1518900746667566e-01
         - -9.8165391317467388e-01
         - -2.8788287357610276e-01
         - 7.7711954609347475e-02
         - 5.7647406300300041e-01
         - -4.8100913064738077e-01
         - -1.1883427647380912e-01
         - 9.0320795615577154e-02
         - -1.0452011863597317e-01
         - 7.0887545708285082e-01
         - 2.9177248894766655e-01
         - 5.2541601934753712e-01
         - -5.5660894316363466e-02
         - 4.9075442592828161e-01
         - 8.1584494634482890e-02
         - -1.9937898858726710e-01
         - 2.8508010327264732e-01
         - -8.6872030980662540e-03
         - 8.5546804566260806e-02
         - 7.3396073266815080e-03
         - -2.2654936439809665e-02
         - -4.3806924914594381e-01
         - 1.3172344588703966e-01
         - -1.3229638593276158e-01
         - 3.8756588680980592e-01
         - -2.6892485684777423e-01
         - -3.4439154809860684e-01
         - -4.8498928782364122e-03
         - 2.3282530374019395e-01
         - -3.7806093890921022e-01
         - 1.1225034663080984e+00
         - 9.3873508077458856e-01
         - -8.9474794187048054e-02
         - -8.4737863613904160e-02
         - 8.2458532783860938e-01
         - 4.7290727709591533e-03
         - -7.4003196964677564e-01
         - -1.0156626323065995e-01
         - 9.2257697422017837e-02
         - 3.8721412764526668e-02
         - -7.6627421514688002e-02
         - 4.8193704259320728e-02
         - -1.0967386027312874e-01
         - -4.3156274758298863e-01
         - 2.6010961461248644e-01
         - -9.3066669711867045e-01
         - 1.8748044102877365e-01
         - -1.9228062821427286e-01
         - 2.1446243461561910e-02
         - -1.8991801346182102e-01
         - -5.1072344221390087e-01
         - 1.2371680543960578e-01
         - 3.1325074205791070e-01
         - -9.1233190642472206e-01
         - 4.5044824047137261e-01
         - -4.8452256244199532e-01
         - -1.1778635559601071e-03
         - 2.0004288060183892e-01
         - 6.4970058415501675e-01
         - 7.9923207465165980e-01
         - 1.0459826333924289e+00
         - -7.5801387168609746e-01
         - 1.5219166955602319e+00
         - 5.1592174591062537e-02
         - 1.4962360193007584e-01
         - -6.7795057013238558e-01
         - 1.2105812931784876e-01
         - 2.6495025431547659e-01
         - 2.2703185309327059e-01
         - 5.7744722245122815e-01
         - 3.7368721681838474e-01
         - 2.1681849325201141e+00
         - -5.6964753040615401e-01
         - 7.1075418267337998e-01
         - 6.1994466700439754e-01
         - 4.7277764705954256e-01
         - 8.5598946733629899e-01
         - 6.3378673840334643e-01
         - -4.6633512960056550e-02
         - -1.8630540199288906e-01
         - 3.7702338206743441e-01
         - 4.4463737703698203e-01
         - 4.7716681619092627e-01
         - 9.7964992615243396e-01
         - 4.0295959770654449e-02
         - 1.1154432476484563e-01
         - -4.3008192533017942e-01
         - 6.4482983037229957e-01
         - -2.3395616821070339e-01
         - 3.0904559067262477e-01
         - 1.0016516578433481e+00
         - 1.4005408709537934e+00
         - -7.1645587460132321e-01
         - -8.6237566746445393e-02
         - 3.8704681414809733e-01
         - 2.4465733500088896e-01
         - -7.5880741843713762e-01
         - -8.7809437662397150e-01
         - 6.9782474595818822e-01
         - 3.2360373573653300e-01
         - 4.6850292985258263e-01
         - 6.5307483277682832e-01
         - 5.4468332797365926e-01
         - -3.0258583571911100e-02
         - 1.6659138530693635e-01
         - -1.0088340273191509e-01
         - -3.2431121866594477e-02
         - -2.5181811169570578e-01
         - 4.2273329872233500e-01
         - 7.5348897024814801e-02
         - -2.6572457631603253e-02
         - 1.6648182557418925e-01
         - 8.9015143978121589e-02
         - 3.7895713719602708e-01
         - 8.3164307678857352e-02
         - 1.0869641302472169e-01
         - 1.0243075334804465e-01
         - -7.6491766679720061e-02
         - 2.1744465938128540e-01
         - 4.6772920783056343e-01
         - 2.7486445981398422e-01
         - 4.9685704222829929e-01
         - 5.8663274990858272e-01
         - 1.8536122389693996e-01
         - 5.7267060416998694e-02
         - 5.6154783486792217e-02
         - -1.3100734525512292e-01
         - 3.5993442950393258e-02
         - -2.3575842243936262e-01
         - 2.0345908627889250e-01
         - -1.3784230608800779e-02
         - 5.8292707869269067e-01
         - -4.6790608263579461e-02
         - 1.7144719149293136e-02
         - -1.4717835713168559e-02
         - 1.4795606418917337e-01
         - 2.5006712281958049e-01
         - 3.9300208586979618e-01
         - 1.6610602392487461e-01
         - -2.3850582202068984e-01
         - 3.6591400962649251e-01
         - 5.0398308748865521e-02
         - 2.8895940014130145e-01
         - 1.0600680779544722e+00
         - -4.4892483731822658e-03
         - -2.4657984594989680e-02
         - 1.8123898068667546e-01
         - -1.9655206992811234e-02
         - -5.1231952565971772e-01
         - 5.0198329385638049e-02
         - -8.4306742506458851e-02
         - 1.0911148892224398e-01
         - -2.8439568190604819e-01
         - 9.8857193318129713e-02
         - 8.9326846585704334e-02
         - -7.2401432810434957e-02
         - -3.4876102243578101e-02
         - -4.9747311362776714e-02
         - -6.8885804361959319e-02
         - 9.2152020844478461e-02
         - 1.2441868486139639e-02
         - 2.1437433323548746e-01
         - 1.7862180828463851e-03
         - -3.5651527389239118e-01
         - -7.0860517543604562e-02
         - -1.5526979307699570e-01
         - -2.1210133328706901e-01
         - -5.3127659230516611e-01
         - 7.5078968411317129e-02
         - 1.7783134409328019e-01
         - -8.3159771989020428e-02
         - -7.3557258502069664e-02
         - -2.2582212547900973e-01
         - 4.6100236179858806e-01
         - 1.4416534146347579e-01
         - -2.9007332049533158e-01
         - -3.0962114380947514e-01
         - 3.3487238751909745e-02
         - 1.7088844087021576e-01
         - -2.7238951541387241e-01
         - -1.8691624870670279e-01
         - 2.6527491383739421e-01
         - 3.5494789008405803e-01
         - -9.3209866037210043e-02
         - 1.0704421998006361e-01
         - -6.3471499042269994e-02
         - 3.6114220540308203e-02
         - -3.1335075260733369e-02
         - -3.4967696398790415e-01
         - 2.1463331458085436e-01
         - -2.3513965513329457e-02
         - 1.8076661529272395e-01
         - 8.4690749019270928e-02
         - 1.8557028932618241e-01
         - 2.8587083493581994e-02
         - -5.1069001891349532e-02
         - 2.5143432219753614e-01
         - -1.0064065733013673e-01
         - -2.0066114132134696e-01
         - 1.5421909470953707e-01
         - 4.1117397270773515e-01
         - -3.0184600408555199e-02
         - -1.4980887885355931e-01
         - 8.5510588711220381e-01
         - -2.0514772520080448e-02
         - 1.9655650115517870e-01
         - 2.1215437465398498e-01
         - 3.0567742723025459e-01
         - -1.9501382665959813e-01
         - 1.7577401456946756e-01
         - -1.7317742543639170e-01
         - 3.2221143581873463e-01
         - 2.6083105456959182e-01
         - -7.9625289615881834e-02
         - 9.7734937415985296e-02
         - -1.1079758960734638e-01
         - 2.9668663109239285e-01
         - 2.7990191429130479e-02
         - 3.1149502766968835e-02
         - -1.7428593705736472e-02
         - -1.9529168685711523e-01
         - 5.3915204631597446e-01
         - 8.7789944076467480e-02
         - -5.6708634095490304e-02
         - -1.3610940564566444e-02
         - -3.8531989458344595e-01
         - -1.4806488076980789e-02
         - -1.3341109311352195e-01
         - -5.6156243501173889e-02
         - -1.6815468294890636e-02
         - -9.8268752435329537e-02
         - 6.0794374568118960e-02
         - 2.5389935887220185e-02
         - 1.2405865003377763e+00
         - 1.3728585476324814e-01
         - 5.5033844915555331e-02
         - 2.1249252046784489e-02
         - 2.5846147468463782e-01
         - -2.1827805923177190e-01
         - -7.2999216014988100e-02
         - -4.7645695885441686e-01
         - 3.4154702210823124e-01
         - -4.8099588032195034e-01
         - 1.4867944015147211e-02
         - 1.3044455581183917e-01
         - -2.8765068092092727e-01
         - -2.6004422251293663e-01
         - -4.1255452354191098e-02
         - -3.4422737876622478e-01
         - -3.9601467193220274e-01
         - 6.8037816991536479e-02
         - -3.1852948849793389e-01
         - 3.1392276497074612e-01
         - -1.7235981234092454e-01
         - -2.8568777851710214e-01
         - -2.1992739299383113e-02
         - 7.2422013774313510e-02
         - 3.6035041159412112e-02
         - -3.7160113272999160e-02
         - -5.3107650491755663e-02
         - -1.4891799234285519e-01
         - -1.8624506561250663e-02
         - 8.4843963094442337e-02
         - 8.9414358801237104e-01
         - -1.2221097755350352e-01
         - -1.9707837556986896e-02
         - 2.7248101366443711e-01
         - 3.1641458474570457e-02
         - -1.0194570606406100e-01
         - -5.8438945542905452e-01
         - 1.6618118433484996e-01
         - 3.0300044761081935e-01
         - -4.6348820562635604e-02
         - 6.2043714328702516e-02
         - 1.2116336546633645e-01
         - -1.9009580611397828e-03
         - -1.6972164021892153e-01
         - 1.5868987566687046e-01
         - -6.7649523955841090e-02
         - 6.2224979389765900e-02
         - -4.8774879135011373e-01
         - 2.4639379156129268e-01
         - -3.1364198247104340e-02
         - -3.4023827473589030e-01
         - -2.8091666516235614e-01
         - 4.4982044358429590e-01
         - 3.3629912896940078e-01
         - 1.3983690612209287e-01
         - 2.1287954716785720e-01
         - 1.6281895429340196e-01
         - -4.3519587760443063e-01
         - -2.7568668331978274e-01
         - 8.8158322930516786e-02
         - -1.4369812586144667e-01
         - -3.2398191302429069e-01
         - 3.9790070134240246e-01
         - 1.6246421921226933e-03
         - -9.7154911211829481e-02
         - 1.5332891234562060e-01
         - 8.4931324954103563e-02
         - 7.2393850880750357e-02
         - -1.6772005880375151e-02
         - -3.3675580559626184e-01
         - 3.6276928126559160e-01
         - 1.4617125763343994e-01
         - 3.4084594401521445e-01
         - -5.8559951435388968e-01
         - -1.8247797104139672e-02
         - -1.9167524638670683e-01
         - -6.6123489349932019e-01
         - -1.7325712024514328e-01
         - -7.0568809609408090e-01
         - -3.0191957864044422e-01
         - -5.6364770898893879e-01
         - 4.0384093100302448e-01
         - -1.3790101808642471e-01
         - 2.2465754775653951e-01
         - -1.0415239405627244e-01
         - -3.4967503970881908e-01
         - 5.2929984249609674e-01
         - 2.4091863003342873e-01
         - 3.7147508209344683e-02
         - 5.5649280217279473e-01
         - -5.5487668019935577e-01
         - -1.7351777021791404e-02
         - -3.3266559828369163e-01
         - 7.1373288542921617e-02
         - -3.8189186024503413e-01
         - -1.1613755076480524e-01
         - 2.1381084129368319e-01
         - -5.0400570670157419e-01
         - -1.4105392107480141e+00
         - 1.9949047527383305e-02
         - 3.0278431026506614e-01
         - -1.3140781056389061e-01
         - 6.3955418466656000e-01
         - 2.5387892486641861e-01
         - -2.1106261581114144e-01
         - 4.3119324333320302e-01
         - 8.5733005418301127e-03
         - 1.3195246599103236e-01
         - -7.3407905394747563e-01
         - 2.8989251299629470e-01
         - 8.0564715040021290e-03
         - -9.5237016661851637e-02
         - 1.8079059164086395e-01
         - 4.9563243145060104e-01
         - 6.1046533334553031e-02
         - 7.9740736372813270e-01
         - -1.3201559362114620e-01
         - -1.6424427133591182e-01
         - 1.0280100942079340e-02
         - 1.0041714357031521e-01
         - -7.5165843933823848e-02
         - -4.1722538541964549e-01
         - 4.1185098618514146e-02
         - -9.8888125739127114e-02
         - 4.1820285441640744e-02
         - -2.2272545426944773e-01
         - -1.8842773343141878e-01
         - 4.8799503850585285e-01
         - 3.5400504460309817e-02
         - -7.1821311099352581e-02
         - 2.9237899572424786e-01
         - 3.3474878496200677e-01
         - 1.9539511389140007e-01
         - 8.9878956332213340e-03
         - 3.1724315340637982e-01
         - 4.6949392055655459e-01
         - -8.1473223301982603e-02
         - -1.0296662742913552e-02
         - -1.7624489573239217e-02
         - -2.9140669030814775e-01
         - -6.6693785651663795e-01
         - 3.5948045990900851e-01
         - 3.4255078508004205e-01
         - 1.0737942920467816e-03
         - 3.7312152833071238e-01
         - -1.8488287574512069e-01
         - 1.1597989043699251e-01
         - 4.4350886503747111e-01
         - -2.8627474858577023e-01
         - 4.4743880683550681e-02
         - -2.5081673271670063e-01
         - 3.5157971421841733e-01
         - 2.8314335721296147e-01
         - -1.4825695601868080e-01
         - -3.8753332885937700e-02
         - 7.8713376473895230e-02
         - 1.4418982612805283e-02
         - -3.9582143659799890e-01
         - -1.4076264053439980e-01
         - -2.9742854388308322e-02
         - -1.4260902469384490e-01
         - 1.0886804141228756e-01
         - -2.8910669734662320e-01
         - 1.9330624045587985e-01
         - -1.5944490799307331e-01
         - 6.1463213524491056e-01
         - 3.9159375270824642e-01
         - 2.0171854180429608e-01
         - -1.5248238101614403e-01
         - -8.8236314671037916e-02
         - -2.1212832205193635e-01
         - 1.5656330341040903e-01
         - -2.8198046957875511e-01
         - -3.8852954298041219e-02
         - 4.8607248055931251e-02
         - 5.3293217679305160e-01
         - 3.0025042241220462e-01
         - -1.5893193431964769e-01
         - -1.4753106297619831e-01
         - 2.2176544877428597e-01
         - -1.7785971275902110e-01
         - 7.2185538280387707e-02
         - 4.8422009486329763e-02
         - -6.2772639866368182e-03
         - 1.8853284631934061e-01
         - 3.9912690629313141e-01
         - -1.7030840476640208e-01
         - 4.7656764896511877e-01
         - 2.2182264267126103e-01
         - 2.1143887894077479e-01
         - -1.8345076184841425e-01
         - -1.2139246667928943e-01
         - -1.1935877456582526e-01
         - 2.7105371700680769e-01
         - -1.6280901345082674e-01
         - 3.7132161162663563e-01
         - 8.2889251272945774e-02
         - -5.0800420449303003e-02
         - -8.8918573550070032e-02
         - -3.3367888686383834e-01
         - -3.8487498342207382e-01
         - 4.0743504674782727e-01
         - -8.6377675493649261e-02
         - 4.6875071920045064e-01
         - 6.3501630668781520e-02
         - 7.6472690035935112e-02
         - 2.1913508665172102e-01
         - -2.1354003735173677e-01
         - -7.9112494899316682e-02
         - -8.3098275922949740e-03
         - 4.7062021055829917e-01
         - -7.4764603841505309e-02
         - 1.5057416400268286e-02
         - -2.6630286683290888e-01
         - 1.4537064619893150e-01
         - 2.5247712386891941e-02
         - -1.6274375882643632e-01
         - -5.4696494331639955e-01
         - 1.1543140364646261e-01
         - -9.4104885465096405e-02
         - -2.5329145166985940e-02
         - 2.4295845941818170e-01
         - -1.8674246325711558e-01
         - 8.4331372317220543e-02
         - 9.1977179569966802e-02
         - -3.8064092625698931e-01
         - 1.1768464274866144e-01
         - 2.0977850197642198e-01
         - 1.1631894912558824e-01
         - 6.5532620407785583e-02
         - -1.4839618594483289e-01
         - -2.6739119314763732e-01
         - 2.6010618200986127e-03
         - 4.6555462218836184e-02
         - -2.2683304744704990e-02
         - -2.2085874658159396e-01
         - 9.2536638994908299e-02
         - 1.0943170829439632e-01
         - 1.7477242104397972e-01
         - 2.9453681375511215e-01
         - 2.3861287639006279e-01
         - 3.2977956294030380e-03
         - -6.9211058208676471e-02
         - 2.3277435688574429e-02
         - -1.2218266429179413e-01
         - 1.6135135503559836e-01
         - -3.7949615112971916e-02
         - -1.4775182038185464e-01
         - -4.3119695398620560e-02
         - 1.4350406521478926e-01
         - -3.8959741277183928e-02
         - 1.0957708232717805e-01
         - 2.6352206523732533e-02
         - -7.7378265594283416e-02
         - -1.7983034523256958e-01
         - 7.3900820532556966e-01
         - -3.2489704089843480e-01
         - 2.0968846545282291e-02
         - -7.3077728235439385e-02
         - -5.4661823720873123e-02
         - -5.0428206947438137e-01
         - -1.6930511526286490e-01
         - 1.6019234714821101e-01
         - -1.8628756753306847e-01
         - 2.8194014716399374e-01
         - 1.6784025632209789e-02
         - -2.0851833627321910e-02
         - 2.5959697707528651e-01
         - -7.1143034356875579e-03
         - 1.3522679279708746e-01
         - -5.8462575119074744e-03
         - -6.7354096252946430e-02
         - 3.9246286199497993e-01
         - -1.5900533088575963e-01
         - -3.6633655974264281e-02
         - 1.0943484031705757e-01
         - 1.0979477330101557e-02
         - 4.7184624281596210e-01
         - 4.6917145709491417e-02
         - -4.4436599033825838e-02
         - -8.1747274466158384e-02
         - 9.2424083150209904e-02
         - -9.7385614924609731e-02
         - -4.8738493655973797e-02
         - -8.8467198648238751e-02
         - -4.7263508699303451e-02
         - 5.5264614683636137e-02
         - 5.7421417966148351e-02
         - -5.2566444853561956e-01
         - 1.6959941662985428e-01
         - 5.9341676995152470e-02
         - 3.6507240563188499e-02
         - 3.7838405530593766e-01
         - -1.1139697900543402e-01
         - 1.0167551507303181e-01
         - -3.8218407979108013e-02
         - -5.8425811842187779e-02
         - -2.3767028732635288e-02
         - 1.5208614725247196e-02
         - 3.0684849800674463e-01
         - 9.2443987881855635e-02
         - 2.2230800866144738e-02
         - -1.3075023402669617e-01
         - 1.8886676209442174e-01
         - 6.7282759156365819e-03
         - 4.8302393362620120e-02
         - -1.4095031441027328e-01
         - -7.2946143390330162e-02
         - -5.8772130826532896e-02
         - -8.5092495948177388e-02
         - -3.5139448706911047e-01
         - -1.1479866087807147e-01
         - 4.7475300785295764e-02
         - 1.5988673802667555e-01
         - 6.2293288290768876e-02
         - 2.0306430153158983e-01
         - 1.2676543541676044e-01
         - 8.5165176555281427e-02
         - -2.0275623846829682e-02
         - 3.7276271347552084e-02
         - -1.7734309020893527e-01
         - 3.4940717128998662e-02
         - 2.5724108413465047e-01
         - 9.9203482581415300e-02
         - 2.2020638079548341e-01
         - 7.2678039119704732e-02
         - 1.1624662389843742e-02
         - 2.0454941963981854e-01
         - -1.7879196209664737e-02
         - 6.4134170674479034e-03
         - -8.6689412699803195e-02
         - 1.8630820396177809e-02
         - 2.0378781494741280e-01
         - 3.8178251049867683e-02
         - -2.2397130568375594e-02
         - -6.5386294070193737e-02
         - 1.7062174058377308e-01
         - 5.5053160611692457e-02
         - 5.9822118640774366e-03
         - -1.6732400906453733e-02
         - 2.6465734898826844e-02
         - 1.1162573797285673e-01
         - 2.9242716845725664e-01
         - -1.7790582434303315e-01
         - -4.6973936790774037e-02
         - 1.1457386635605886e-01
         - 1.1530832924557356e-01
         - -1.5990297424059716e-01
         - -1.2891824076995240e-01
         - 2.1248570726372679e-01
         - 5.9289210353659444e-02
         - -6.7855643324270479e-02
         - 3.0512018969423554e-02
         - -1.9612585790226483e-01
         - -1.2359470761112851e-01
         - 9.1958150312242849e-03
         - 8.8592148595314002e-02
         - -4.2555035213087633e-01
         - -1.6594768250811753e-01
         - 3.4458920099065810e-01
         - -1.3605796287063601e-01
         - 9.6238029885118509e-02
         - -2.0742134673080548e-01
         - 5.5190654810978637e-02
         - 1.9882422419810403e-01
         - 4.1960395728996397e-01
         - -5.6376262538934396e-01
         - 1.4378407929230388e-01
         - -4.0382033831634051e-01
         - 4.1441644493552622e-02
         - 7.4585829325575739e-02
         - -1.5526236132878815e-01
         - 1.1439272476692573e-02
         - -7.9693429888906694e-02
         - -2.1995193102979271e-01
         - 8.4885859004778824e-02
         - -7.7959120418322342e-02
         - 3.9229197567507951e-02
         - -2.6017318950956975e-01
         - -1.5130316147777512e-01
         - -3.5178065093958916e-01
         - 3.8554375633937939e-02
         - 5.5582076214209748e-02
         - 1.4137332734098521e-01
         - -1.8980511573768760e-02
         - -2.0981010338109216e-01
         - -1.7974309296644796e-02
         - -1.1774269292179519e-01
         - -1.8276015032754087e-02
         - -1.3215876961270884e-01
         - -1.0090515214529325e-01
         - 1.1913228142201189e-01
         - 3.3924979726308685e-01
         - -9.5065853272583614e-02
         - -2.8500498674314634e-01
         - -1.1914187358857349e-01
         - -1.5876823976526863e-01
         - -5.1282115806822837e-01
         - -3.2561693623611676e-01
         - -6.8038088006534422e-02
         - 1.0551728130523852e-01
         - 1.6389156738170436e-02
         - 2.9310021951353460e-01
         - 3.6307326328429806e-01
         - 8.3410503863249899e-02
         - 1.4629396332907488e-01
         - 9.3291193052092311e-02
         - -3.1282464728569204e-01
         - -2.4963672985607543e-01
         - -2.6005450320916862e-02
         - 1.0933599389444479e-01
         - -5.7115793292287254e-01
         - 4.1219453157570607e-01
         - -5.3571703057077469e-01
         - -4.1723444537294080e-01
         - -4.7671676172108113e-01
         - -2.0696910823248968e-01
         - 3.1128865451182802e-01
         - 5.2909850308118211e-01
         - -4.6740608489460844e-01
         - -5.3980582571308044e-01
         - -6.4151588298714857e-01
         - -3.0220676212070943e-02
         - 4.2301981351984336e-01
         - 1.3326305132528599e-01
         - 1.9414304051408610e-01
         - -5.5126526180756208e-01
         - 1.6323575020056580e-01
         - -3.6343795120096362e-01
         - -9.2964331510346687e-01
         - -2.9519490348117106e-01
         - -9.4954637993410362e-01
         - 5.0356960543127294e-01
         - -1.5439539193076920e-01
         - 7.8641159859096010e-01
         - -5.4832922242512927e-01
         - -4.5574608369371306e-01
         - -4.7035320187195379e-01
         - -8.4204078200130761e-01
         - -2.3087264480872560e-01
         - -2.8836222271333808e-02
         - 3.0196626321629949e-01
         - -1.1629471459602768e-01
         - -7.2080383091138345e-01
         - -7.9278276875400078e-01
         - -2.0904710613339803e-01
         - 1.0159890191268939e+00
         - -8.4851875552123202e-02
         - -2.4078827708499351e-01
         - -4.6556352817683860e-01
         - -4.5764778945002604e-01
         - -1.1150114937083891e-01
         - -1.0909132047855967e-01
         - 2.6161258751638394e-01
         - -7.2677770920136953e-01
         - 2.0027773459483131e-01
         - 2.0837714057293716e-01
         - 5.6756096965014935e-01
         - -6.9856375075566113e-01
         - 2.4485738180063538e-01
         - -8.3293478570608970e-03
         - -6.6261278135047108e-01
         - 5.4011724862000465e-01
         - 7.1337424104303282e-01
         - 4.4463539808083541e-01
         - -7.3591781128761535e-01
         - 2.3665822225850985e-01
         - -6.4807192658009494e-01
         - -8.0723984091453649e-01
         - -3.1074813177698685e-01
         - -7.3008645827464733e-02
         - 3.7643991043023761e-01
         - 1.3590897834565019e-01
         - 4.5330169983368263e-01
         - 1.2718449488681083e-01
         - 7.9287838434068725e-01
         - -6.5009856358866887e-03
         - 1.7749725752510652e-02
         - 1.0545045777919668e+00
         - 5.4831796267408230e-02
         - 2.3335229574891994e-02
         - -5.0327136768664071e-01
         - -6.3346650410914000e-03
         - -1.3971045162813925e-01
         - -1.2446755227703410e-02
         - -4.9829540834361759e-02
         - 3.5272226455674216e-01
         - 1.2421805451411163e+00
         - -2.2668223996505446e-01
         - 1.5937710981889985e-01
         - 1.2361883415328817e-02
         - -8.9846377451424635e-03
         - -4.0179764769750359e-01
         - -3.4175634422197931e-01
         - -3.7617230833396870e-01
         - -1.8209179381811882e-01
         - 4.9125008896284328e-01
         - 5.9047943750693810e-01
         - -2.5034705712477862e-01
         - 5.6085279025179111e-02
         - -6.0865202970634746e-01
         - 9.7248143561809031e-01
         - 1.0758807949224984e+00
         - 5.6060166261818634e-01
         - 2.6816060323794971e-01
         - 2.3503287447746421e-01
         - 1.0407188350124650e+00
         - -2.5344604267714532e-01
         - -3.5968963996308007e-01
         - 2.1662733549429616e-02
         - -8.5113637598583558e-01
         - 3.0085397947949699e-01
         - -8.9775172921087043e-01
         - -2.5772488307624386e-01
         - -3.0231820985290109e-02
         - 2.2726159729008552e-01
         - -6.1671834546602389e-01
         - 2.0704916523569378e-01
         - -1.5261423007891398e-01
         - 4.1403532357183992e-01
         - -5.6040069927563420e-02
         - -1.4641107870060019e-01
         - -6.9966244009004896e-01
         - 6.6401861888228820e-03
         - -5.6305726066895700e-01
         - -5.1702197359530699e-01
         - -3.3522807054657600e-01
         - 5.2899833897798276e-01
         - 4.9610352643747413e-01
         - -7.1114625953607985e-02
         - 3.1613086120477124e-01
         - 2.9763467084480177e-01
         - -5.7738299144834138e-01
         - -2.7193844625817759e-01
         - -1.5566502472582353e-01
         - -2.9959147157248209e-02
         - 2.8731263074833269e-01
         - 2.7859025735132215e-01
         - -9.5894271513746965e-02
         - 3.6569651623270921e-01
         - -3.8215492563973380e-01
         - 3.3457344616409951e-01
         - -6.2072071420466050e-02
         - 3.6072662195350630e-01
         - -5.2972576308619557e-01
         - 9.8157555119881723e-01
         - 2.9724340234483875e-02
         - 5.2786351059166348e-01
         - 2.0309461774703177e-01
         - 5.4286853640976951e-01
         - -3.6713895788652501e-01
         - 4.7732507310796962e-01
         - -9.0324486999834008e-01
         - 5.4926483134132686e-01
         - 3.9637552528127995e-01
         - 4.4339687786091542e-01
         - 1.1305722825250826e+00
         - -3.0491253441216010e-01
         - 1.1147128003974291e+00
         - 2.6476538187934795e-01
         - 4.7671039526236092e-01
         - -3.5618904584618594e-01
         - 6.5513406631225346e-01
         - -1.7868867049902776e-01
         - 3.4264633061549038e-01
         - 2.1875833970055919e-01
         - -1.0067143312310358e+00
         - -1.1775294502345145e-02
         - 6.6046014177819101e-01
         - 1.4717561796030540e-01
         - 1.0391472800179882e-01
         - -1.9804806972518330e-01
         - 2.5053987669151256e-01
         - 3.0003578333435132e-01
         - 2.7492814206628229e-02
         - -5.3706081922432047e-01
         - -3.5030535455366225e-02
         - -1.3300448798557699e-01
         - 4.4169592759748172e-01
         - -8.8017486061127567e-02
         - -5.7557575121062776e-01
         - 4.6430559657063397e-01
         - -5.9657138155402112e-01
         - -5.3103165636554006e-01
         - -1.6006318121924115e-01
         - 4.1813752609186733e-01
         - -1.9911366594262914e-01
         - 7.3069769291178643e-01
         - 9.0416874407692227e-01
         - -3.4144762970792858e-02
         - 1.6640512765644630e-01
         - 1.3324168947130513e-01
         - -5.4626740764582371e-01
         - -3.2516556762024401e-01
         - 2.0736074427671297e-01
         - 1.7670388657926256e-01
         - 5.6952160978719489e-02
         - 3.4301480303181175e-01
         - 1.7734278925276327e-02
         - -6.8337932349267216e-02
         - -2.4061622103904662e-01
         - 1.9402021558660815e-01
         - -2.1418509239655367e-01
         - 1.4525452674342676e-01
         - -5.2944684157089950e-01
         - 8.9762011139490960e-01
         - -1.7338532309191959e-01
         - 4.1324759330173411e-01
         - 2.7715903279918369e-01
         - -1.9010346304727280e-01
         - -1.1683819555738195e-01
         - 2.2517371575090112e-01
         - -6.1946493883161657e-01
         - -1.3662384894611983e-02
         - 1.4570579361734753e-01
         - 3.1984079799557708e-01
         - 4.1350391731029112e-01
         - -2.4733040988456917e-01
         - 3.1953573570571592e-01
         - -2.8796968099234248e-02
         - 2.6309225481803266e-02
         - -7.1959489520660924e-01
         - 1.6772562797903934e-01
         - -3.5229313187969963e-01
         - -3.1878639723943989e-03
         - -1.5501730287374188e-01
         - -2.1971533908926158e-01
         - -1.9962795191329855e-01
         - 1.7482860634378591e-01
         - -3.2004643469686755e-01
         - 5.4382236885083990e-01
         - 1.1257334589846373e-01
         - 1.6652474333297382e-01
         - 2.8139600619993849e-01
         - 3.7505993842781199e-01
         - -3.3751085950716492e-01
         - 1.8214381024575291e-01
         - 3.0050738993441750e-01
         - -1.0214719538821595e+00
         - -6.8369851951465099e-01
         - -1.1145607863174223e-01
         - -2.0594906552394467e-02
         - -1.7642759670861746e-01
         - 2.3647489052135318e-01
         - -6.8886539687843487e-02
         - -2.1936214069406448e-02
         - 2.1634166256730814e-01
         - -1.1261242877095343e-01
         - -8.1613297042472416e-02
         - -5.7719304041598340e-01
         - 6.3417459685281130e-01
         - 1.1462488451152832e-01
         - 6.0822592952118906e-02
         - -2.4606458528142622e-01
         - 1.3457508010473959e-01
         - -6.1138272428401974e-02
         - 4.6539207763428597e-02
         - 7.5616009574988249e-03
         - 1.7429564407674314e-01
         - 1.8050907415459241e-02
         - -1.8886672493951415e-01
         - 5.5255614925132793e-03
         - -1.8997156452982777e-01
         - 1.9395791623904421e-01
         - -2.7328851565072487e-01
         - 2.0777894461004509e-01
         - -2.8383503523244380e-01
         - -7.8475973952896155e-02
         - -1.0374118738500396e-01
         - -1.7044549556991115e-01
         - 1.0099966413554434e-02
         - 1.0961177229583032e-03
         - 1.8693697369800599e-02
         - -1.7938154715083052e-01
         - 3.1109004766624998e-01
         - 1.9031062522628167e-01
         - -1.0947936738828490e-01
         - -2.5993377606189605e-01
         - 2.8067838078973528e-01
         - 1.6264455018062940e-01
         - 2.8531982373341130e-01
         - -3.8442877294956579e-01
         - 2.7642737051337890e-01
         - -9.7013977705865992e-02
         - 2.2515168447849498e-01
         - 1.9455243618359047e-01
         - 4.1200558284980426e-02
         - -2.7100230990149382e-01
         - -1.4276397114159417e-01
         - -3.1772806297211609e-01
         - -1.3740282749693669e-02
         - 1.3323377762621599e-01
         - 2.9011670691939523e-01
         - 6.6353321748676086e-02
         - 1.0739380843577905e-01
         - 1.7588755438380166e-01
         - -1.4679568563459323e-02
         - 4.8723690801644376e-01
         - -8.2205066880898447e-01
         - -5.7299060521722522e-01
         - 1.7799558144817892e-01
         - -6.5752564057789231e-02
         - 6.0000357300234335e-02
         - 3.8362922477780254e-01
         - -1.4509123725613607e-01
         - 8.5734190315461298e-02
         - 7.5957784332927020e-02
         - -3.2232842375032039e-01
         - -5.3274843558118001e-01
         - -3.0081197290655698e-01
         - 9.7934225425070931e-01
         - -3.6947268582279508e-02
         - 6.2097118509582494e-01
         - -5.0838590986648569e-01
         - 3.8257053506776079e-02
         - -2.1145269780252046e-01
         - -4.3147245087155714e-02
         - 2.4257373494544920e-01
         - -1.6956587686958935e-01
         - -3.8497634608861681e-01
         - -1.5716941704954995e-01
         - -5.0620312223292685e-01
         - 1.5036408965590575e-01
         - -3.9653489879254808e-02
         - 3.6378092106247800e-01
         - 6.4233254021509339e-02
         - -7.1212381214530296e-01
         - 1.6795353684123354e-01
         - -1.3943791056105778e-01
         - -4.1292917932849066e-01
         - -2.5112850299385331e-01
         - -8.3838668185009857e-01
         - 7.6588043209657050e-02
         - -2.4307974267579660e-01
         - 9.3849694609863776e-01
         - -6.5583274273452641e-01
         - -1.6887390411337008e-01
         - -2.1628300021320529e-01
         - -1.2077677982038479e-01
         - -1.2487193442455606e-01
         - -1.5718433130010362e-01
         - 1.5884065605852540e-01
         - 2.6088695541976955e-02
         - -4.3739318147321737e-01
         - 6.4834120280007198e-03
         - -3.2494826036105963e-02
         - 3.1839836254523629e-01
         - -4.7828390120032821e-01
         - -1.2325525811172739e-02
         - -1.5166255975638041e-01
         - -6.3205389815912194e-01
         - 2.9173406963349774e-01
         - 3.1987478007386910e-01
         - -1.3952109816537125e-01
         - -1.1658398443481233e-01
         - 3.2209801755332967e-01
         - -4.7613406542961735e-02
         - -4.0950272348706079e-01
         - -2.0834933911416651e+00
         - -6.6702954114249435e-01
         - 4.7149074604296409e-01
         - -7.1823344679998569e-02
         - 1.8848554409492810e-01
         - 8.6955004615392895e-01
         - -5.9469744893780963e-01
         - 4.8508799273769909e-01
         - 1.7181218075296881e-01
         - -5.5757371785008003e-01
         - -4.9745026125440550e-01
         - -3.8958665843023721e-01
         - 1.0006508808109803e-01
         - 1.1026978535471987e-01
         - 2.0281848558399607e-01
         - -2.0008183563510665e-01
         - -3.5549728631555561e-01
         - -2.8754217801100490e-01
         - -2.2627649452235618e-01
         - 4.9050092119930172e-01
         - 1.8266167493164584e-01
         - 5.6273726024631855e-02
         - 7.4405556319958721e-01
         - 4.8931628278191153e-01
         - 6.3974031774451334e-01
         - -3.2390748193980280e-02
         - 7.8420265568467573e-01
         - -5.3486015234679685e-01
         - 2.3687360004320399e-01
         - -5.8965226670825011e-01
         - -2.6160439570873528e-01
         - -9.9869759577126904e-01
         - -1.1999149336475812e-03
         - 9.9757416982501027e-02
         - -3.8222601946177381e-01
         - 2.9738779719320582e-02
         - -1.0289275052208741e-01
         - -8.7136750254752871e-02
         - 8.2171398296763454e-02
         - 8.1486298976073346e-01
         - -2.3001277213907423e-01
         - -1.6511597696724659e-01
         - -2.7343405031338008e-01
         - -2.1037302666245261e-01
         - -3.2488685806855244e-01
         - -2.4560056769505084e-01
         - 9.9806676675475367e-02
         - 7.8468816865610094e-02
         - 3.2255811002432783e-01
         - 4.6104751603633420e-02
         - -3.0568556655125173e-01
         - -6.0265860822394290e-01
         - 8.0520267203468243e-01
         - -3.0579181417561324e-01
         - -1.2849424462753894e-01
         - 6.7798057155066394e-01
         - 4.2624908717115863e-02
         - 3.7980207286090722e-01
         - -5.6998147248113562e-01
         - 2.6529812495697269e-01
         - 4.3773731824612400e-01
         - 7.4031956724801840e-02
         - -3.6603625104291083e-02
         - 1.2383318129047197e-01
         - -6.0949076537275361e-02
         - -2.0971761635780556e-01
         - -1.6109524626242095e-03
         - -1.1552590875786187e-01
         - 1.7700195422348694e-01
         - 7.7243232776443660e-01
         - -4.3903930100023247e-01
         - -3.3133302081907773e-01
         - 8.1992033238444076e-02
         - 8.5970687730656581e-01
         - 9.6885036700428598e-02
         - 1.3611628980803489e-01
         - -1.4247809704192085e-01
         - -9.8008177835008226e-01
         - -1.2364016192793446e-02
         - 7.2787318363038234e-01
         - 1.0209447716895920e-01
         - 2.1354318621709056e-02
         - 7.5064673041852881e-01
         - 4.0686655943650968e-01
         - -1.4346204632279017e-01
         - 2.0359944165553567e-01
         - -1.9692938825655654e-01
         - -5.9855771179790707e-01
         - 1.2227587076139684e-01
         - -4.9951440794851260e-01
         - 1.0507081833026377e-01
         - -7.0738041803237350e-01
         - 2.4624093766547525e-01
         - -2.1308778985173779e-01
         - -2.6129968761544369e-02
         - 4.4711020573797389e-01
         - 1.2054932590360008e-02
         - 1.8090519691759577e-01
         - 4.1541782277367206e-01
         - -4.7621494056943336e-01
         - -3.0633564724650623e-02
         - 2.7695434456481766e-01
         - 3.6188183547490710e-01
         - -8.3703332731770930e-01
         - -6.7399671913764059e-01
         - -1.8704444373275939e-01
         - -1.1269138867430373e+00
         - 4.4684387362760614e-01
         - 8.1646439245463540e-02
         - -3.1189080467941155e-01
         - -1.4030453793795641e-01
         - -1.2029577824074737e-02
         - -1.4585060011069892e-01
         - 2.1012528824542845e-01
         - 1.1761088371542003e-01
         - 3.7275794002914431e-01
         - -7.5605655377511161e-01
         - 1.9797044046622961e-01
         - 1.0435621301907173e-01
         - 1.4868394537692323e-01
         - 2.2621618902332222e-01
         - 5.7442153928679907e-01
         - 2.7977643045156531e-01
         - 3.5321269908828695e-02
         - -7.1610080864149916e-01
         - -4.0389405549194318e-02
         - 8.7516219457013836e-02
         - -3.0790732603915855e-01
         - -3.6241665643035592e-01
         - 2.1821618936126042e-01
         - -1.1886375658089524e-03
         - -3.1363178589467944e-01
         - 1.1447644091700644e-01
         - -1.0960583402789385e-01
         - 7.9133806792110767e-02
         - -1.4510250436912525e-01
         - 2.5556616221646594e-01
         - -6.5260702472800736e-01
         - 5.6268857535388417e-01
         - -3.9784261528883241e-01
         - 3.5411567176702835e-01
         - -3.2479794529303502e-01
         - -1.5598945804456312e+00
         - 1.7204948673635390e-01
         - -5.0175242343297599e-01
         - 1.3957780956454652e-01
         - -1.4034039958357183e+00
         - 8.9771664349930658e-01
         - -3.8925827977259103e-02
         - -1.0089868384842331e-01
         - 2.2657133497475657e-01
         - 8.5575127976134702e-01
         - 2.7281670378098705e-01
         - -3.1251554074872573e-01
         - 7.2036498847074748e-01
         - 5.4599713153807439e-01
         - -4.4547695961584716e-01
         - 3.9170102800727230e-01
         - 7.3743631637890439e-01
         - -1.8311748058457893e+00
         - 1.0764117969108307e+00
         - 7.6896524086614770e-01
         - -2.2398111922709005e-01
         - -3.9538109954601391e-01
         - -1.9710777226117948e-01
         - -8.6685149252982907e-01
         - -8.9464050959392838e-01
         - -6.3887316141747391e-02
         - -3.7086762602740803e-01
         - -5.0021529651730678e-01
         - -4.4485217742638326e-02
         - 3.6469688291867947e-01
         - -1.1600448054535319e+00
         - -1.6766692614119480e-01
         - 6.8461036949663501e-01
         - 3.5249532219242180e-01
         - 1.0932316257038147e-01
         - 1.4358879400959371e-01
         - 1.0728950199245777e+00
         - -1.9712008861950672e-01
         - 6.0523255376547846e-01
         - 5.5228686532636762e-01
         - 5.5365920700627368e-02
         - -4.3996803853019789e-01
         - -1.6182515246952858e-01
         - 4.7218878147269638e-01
         - -1.5083559625634183e-01
         - -1.3129862911276999e+00
         - -6.5071602335872014e-01
         - 6.7537871031976981e-01
         - 6.6536601814836438e-01
         - 3.4329133940848572e-01
         - -8.2829367843228097e-01
         - -1.3437193828355809e-01
         - -1.9578061236721273e-01
         - -8.4797692450920323e-02
         - 1.0227369402853746e-01
         - -1.3905825519565515e-01
         - 3.7409005746112006e-01
         - 3.2894584276936228e-01
         - 2.8637565830205497e-01
         - -8.1970027594561568e-02
         - -4.0908478745272242e-01
         - 3.1830193763434211e-01
         - -6.8628459508238912e-02
         - -9.7552693526328810e-02
         - -7.6318883389435954e-01
         - 2.4958286049359804e-01
         - -1.0317486100161948e-01
         - 5.8952869953904224e-02
         - 2.3261730964405697e-01
         - -4.1011813258680563e-01
         - 1.1114516671098439e-01
         - -3.7884155887544235e-01
         - 1.8922372147555702e-01
         - 3.1188604232151523e-01
         - -1.5655091757527378e-01
         - 1.3239270876232467e-01
         - 2.9643375392522259e-01
         - -6.9675652996140536e-01
         - 8.1596122316894870e-01
         - -1.6494271561440885e-01
         - -1.3564211608833298e-02
         - 3.1155546437168286e-01
         - 1.6414522772364080e-02
         - 1.5106439326639445e-01
         - -2.7654363894359446e-01
         - -1.1760513781917456e-01
         - -2.1312366195970192e-01
         - 2.5335328565463117e-01
         - -1.6393181511564256e-01
         - 5.4190567930695191e-03
         - -8.1923579883759046e-01
         - -2.6070739848409413e-01
         - -3.9845076409231538e-02
         - -4.6995924098541739e-02
         - 1.1763610804037969e-01
         - -3.7679995724989687e-02
         - 5.5110400622011269e-01
         - 7.8603431562961429e-02
         - 4.6567369028190125e-01
         - 3.0718338719566880e-02
         - 5.7636292089674890e-01
         - -4.7990704236617071e-01
         - 2.1044701348555281e-01
         - 4.1579288014005050e-01
         - -1.2705168187648166e-01
         - -2.8479242346687406e-01
         - 1.1183328366282408e-01
         - 9.6681604254949982e-02
         - 6.4784349542496988e-01
         - 9.3032853959118339e-02
         - 1.8035258482207964e-01
         - 3.2941304470025939e-01
         - -3.9656975230148800e-01
         - -1.2651068469208479e-01
         - 8.0308385924773240e-02
         - -2.0047255758691451e-01
         - 1.9552995031550749e-01
         - 1.3529820634751061e-01
         - 2.3088548013527940e-01
         - -1.6590719387728270e-01
         - -2.6673025254850596e-01
         - 2.0154452151556740e-01
         - -1.8125293633580133e-01
         - -2.1515306211360870e-03
         - -5.7963953724223549e-01
         - 9.3569453451044671e-02
         - -2.2590403378279714e-01
         - 1.1522099434894172e-01
         - 2.0287372996518468e-01
         - -2.8649571388963768e-01
         - 6.8586246152707045e-02
         - -1.8023730882333511e-01
         - -4.2073322825495774e-01
         - 3.9391085675414644e-01
         - 4.1994481462692301e-02
         - 5.0261871519793430e-02
         - 4.4167037203993154e-01
         - -1.9812348269638849e-01
         - 4.0444274475320241e-01
         - 5.2234349981528844e-02
         - -1.8824112483014202e-02
         - -2.5781089187597861e-01
         - -1.0172440540794322e-01
         - -2.3842896993626475e-01
         - 1.6193272295212991e-02
         - -1.0337561703812541e-01
         - 5.0933559963392454e-03
         - 4.6741579773002494e-02
         - -6.6379205477020986e-01
         - -4.3252070289931561e-02
         - -1.1623989336594617e-01
         - -9.5683890837211766e-02
         - 1.8744690310643944e-01
         - 1.5134137436086820e-01
         - 9.4508660788060930e-02
         - -1.0259464517215212e-01
         - 7.5750865983224169e-02
         - -4.2113679678618121e-02
         - 5.9323751931125779e-01
         - 6.8957831104171252e-02
         - -2.7233036840861635e-01
         - -3.2496129126729535e-02
         - -4.0761509190141064e-02
         - 1.7543473879553376e-01
         - 2.0612247087938232e-01
         - -2.6929491657274834e-01
         - -6.8637791048566632e-01
         - -2.8281131471507892e-01
         - 7.2625608670784791e-01
         - 2.2109901674319510e-01
         - 4.3331181466062220e-02
         - 1.6531789374647041e-01
         - 2.2420481788973071e-01
         - 1.1200422531757208e-01
         - -3.4812281683158036e-01
         - -1.1270632743542969e-01
         - 4.1368654202984761e-01
         - 4.3646805608393535e-01
         - 2.3735498420990633e-01
         - -1.7921335662088694e-01
         - 7.0462822297992500e-01
         - 4.7031845392611110e-01
         - 6.4210403021452789e-01
         - 3.8908814798512670e-01
         - -2.2928939031806905e-01
         - 3.6247722953493891e-02
         - 4.8729512688540139e-01
         - -4.7985064762144904e-02
         - 3.7232832451116704e-01
         - -9.4249652600924561e-01
         - -1.0388006710379113e-01
         - 5.5514899503905167e-02
         - -3.3494874855154194e-01
         - 2.6879323585531167e-01
         - 4.4379044968484554e-01
         - 6.3135382435324761e-01
         - 2.9379908470724753e-01
         - -1.4339112771295229e-01
         - 2.2652191488077852e-01
         - 7.1489599757619274e-02
         - 1.4992819215839553e-01
         - -4.7536853855519484e-01
         - 1.9242932457434225e-01
         - -4.1009787844011825e-01
         - 1.9405472099938767e-01
         - 9.0745786900580938e-03
         - 3.8038353093850191e-01
         - 3.4125449690544302e-01
         - -3.6349038900959096e-01
         - -8.4492253886516555e-01
         - 7.5451321879057409e-01
         - 4.0528505731635746e-04
         - 3.6251739279466200e-01
         - 4.0736372275640281e-01
         - -5.0034188476356534e-01
         - 1.8932702851982162e-03
         - -4.2547904868923091e-02
         - 4.6882175116118219e-01
         - 6.6745274895474016e-01
         - -9.5566785255902301e-02
         - 2.6716968748491349e-01
         - 3.5787282108050600e-01
         - -5.5412588695667016e-02
         - 2.6101378237156969e-01
         - 6.8124657757631074e-02
         - -2.4950081056607734e-01
         - -2.0805509118099583e-01
         - -1.5183682000344473e-01
         - -2.5464999755292195e-01
         - -3.7687061287926182e-01
         - -7.8923887348735528e-03
         - -2.5411165685657100e-01
         - 6.9678007230840625e-02
         - 8.4715188113778109e-02
         - -1.7179304338250284e-01
         - 1.6325069583466392e-01
         - 7.4454596726084052e-02
         - 1.8021902733857806e-01
         - -7.8116616972755529e-02
         - 1.8700222731734323e-01
         - 1.2765433467708107e-01
         - 3.2105110863411862e-01
         - -4.9506642848955604e-02
         - 4.1551521903478617e-01
         - -4.6815219734190161e-01
         - -8.7448315959912010e-02
         - -1.2834611552228922e-01
         - 4.9484740770039823e-02
         - -1.5464466333140045e-01
         - 6.1783943477432067e-02
         - 4.7492948560378979e-02
         - 2.9044464902270772e-01
         - 1.6413382902014156e-01
         - 2.1142936445954361e-01
         - -1.2731757738683436e-01
         - -1.0780705455924577e-01
         - 1.0442676482731024e-01
         - 1.7819063434279461e-01
         - 2.4318992628979610e-01
         - 6.4166532422044287e-02
         - -3.2542934868956158e-01
         - 2.0648444459734761e-01
         - -2.0816309924883589e-01
         - -1.6231096342394660e-01
         - -1.0919268959578979e-01
         - -8.6478297242413849e-02
         - 9.7775414604516584e-03
         - -4.0900271650006918e-02
         - -1.8669708525737441e-01
         - 3.6097987107547677e-02
         - 1.8006793562502060e-01
         - -1.1558332170979872e-01
         - -3.0551250261865948e-01
         - 2.0279439820724515e-01
         - -4.0652272550784810e-02
         - -3.4263087574473175e-02
         - -5.8849212144783301e-02
         - 1.6645778021554922e-01
         - 1.6145347830026482e-01
         - -3.0651495469434015e-01
         - 6.3111146444715688e-02
         - -7.6832002406566582e-02
         - 2.4849386079318853e-01
         - 2.6731170675067978e-01
         - 2.8781091707566747e-01
         - -1.8984173732780033e-01
         - -5.2919054941025320e-02
         - -1.6185826500662256e-01
         - -2.3493671509773509e-01
         - -1.7128310086390047e-01
         - 2.1605242206213834e-01
         - 3.0177510307058392e-01
         - 1.4327143355406760e-01
         - 1.9354117953061781e-01
         - -2.8957082787182942e-01
         - 7.0223255971552795e-02
         - 9.4510601215297890e-02
         - 1.7404637100162065e-01
         - -2.5545791149435153e-02
         - 6.4700135938961179e-02
         - 7.6813652257236714e-03
         - -1.9310576046232369e-01
         - -1.9486244787210164e-01
         - 2.3445953400385938e-01
         - -5.6305819038418914e-01
         - -2.6262445467986673e-01
         - 1.2654300922007972e-02
         - 3.7952505779812809e-02
         - -6.6858279822702413e-02
         - -2.7040963996294209e-01
         - -4.0968452183147257e-02
         - 1.4215977612091621e-01
         - -1.0046102826182704e-01
         - -2.1798807614847465e-01
         - 8.9359927026462227e-02
         - -3.6950316195409144e-02
         - -9.6710666586244942e-02
         - -3.1336327572002914e-02
         - -2.4226965318780835e-01
         - -6.7383573342655753e-02
         - -3.7973767026732129e-02
         - 2.7812767305182434e-02
         - 3.3151921591200773e-01
         - -4.9385734240085238e-01
         - -3.4736395835315631e-01
         - -1.5135294194665383e-01
         - 4.0237389892911660e-02
         - 2.7144523516308108e-02
         - -3.3009848863664776e-01
         - 2.2773571563548631e-02
         - -9.6992193455562786e-02
         - -9.5113146919480904e-02
         - -4.8995180425869972e-01
         - 4.7822293813005862e-01
         - -9.3795595321991110e-02
         - 5.9232578815562077e-02
         - -3.7801053041215416e-01
         - 3.1419243915492606e-01
         - 1.6848854585700326e-01
         - 6.5993392798135875e-02
         - 1.1067083957151129e-01
         - -5.2768785965243620e-02
         - -1.5841867788581845e-01
         - 3.2361434778137477e-01
         - -1.3170913863603786e-01
         - -2.9255102405896333e-01
         - 8.3380379588871276e-02
         - -2.5247670529285327e-01
         - -2.1301178270016083e-01
         - 4.7439395179956323e-01
         - -5.6955988221822726e-02
         - 7.5378014026762774e-01
         - -2.3103228785025623e-01
         - -6.2924450097678275e-02
         - 5.7860682566625785e-02
         - -3.5680254343727752e-01
         - -1.0779823693865487e-01
         - 3.1250074367413216e-01
         - -1.7083410434331192e-01
         - 1.8122836831543621e-01
         - 9.4871590909591685e-02
         - -2.3511561560159655e-02
         - -3.0956174134585313e-01
         - 5.4778302498445140e-02
         - -5.8229438820114499e-01
         - -1.8767378562251402e-01
         - -1.7809413779186248e-01
         - -3.1755191634308594e-01
         - 2.7182144281852100e-01
         - -1.1031992400302612e-01
         - 2.2279422622179393e-01
         - 3.8108178296518892e-02
         - 8.7165087847109812e-01
         - 3.9433269896269130e-01
         - 8.0677071508468201e-02
         - -3.9883487686303259e-01
         - -7.7796002702416878e-01
         - 1.9046828072936084e-01
         - -4.9311197160174935e-01
         - -1.0852675561674799e-01
         - 5.9060791589681777e-02
         - -5.3124800083761603e-01
         - 3.0462415166026480e-01
         - -2.8993675464538476e-01
         - -5.7578700886045930e-01
         - -1.9748974312464773e-01
         - 3.6131676124917789e-01
         - -3.5560916108464881e-02
         - 2.2673818675529450e-01
         - -4.0968227770730048e-01
         - 4.1638598121597009e-02
         - 1.9078257703608376e-01
         - 6.1634001439269906e-02
         - 3.8480542463029888e-01
         - -1.6533370861364150e-03
         - 4.9200848464370384e-01
         - -4.4914887063862735e-01
         - 3.8198482788742583e-01
         - 2.7638379955284176e-01
         - -4.4214300646322854e-02
         - -2.1416064468266924e-01
         - -7.2297161699245394e-01
         - 5.8073694043931867e-01
         - 4.9688624228459077e-01
         - -3.1361135828572501e-01
         - -2.7825337007226464e-01
         - -4.2432280053156535e-01
         - -3.9560942605281139e-02
         - -3.1561183191968756e-01
         - 2.4605366022402936e-01
         - 4.9781752358279674e-01
         - 2.7350345553216371e-01
         - 3.3042236801300674e-02
         - -2.0809672897111953e-01
         - 1.0589368003751146e-01
         - -2.5460730250845991e-02
         - 1.2157035334995470e-01
         - 3.6583900588358115e-01
         - -9.5518810378211458e-02
         - 1.1721000907729576e-01
         - -1.4670185220883683e-01
         - 3.1313541529476595e-02
         - 1.6380760016875769e-02
         - 7.7871095390965792e-04
         - -4.5438452733418916e-01
         - 5.8080171723759066e-02
         - -5.8637546482494078e-02
         - -8.1158962889522374e-02
         - 3.2149711729251895e-01
         - -1.5693169166843195e-02
         - -2.1199839148747801e-01
         - -1.6288539933058740e-01
         - 1.7045979421572166e-01
         - -7.5622539919845314e-02
         - 1.7241107991412594e-01
         - -1.7877834929662226e-01
         - -2.7461445270442114e-01
         - 5.2775301049802192e-01
         - 1.0350721695982454e-01
         - 1.6787131688102078e-01
         - -6.0676363741680936e-02
         - -1.0808284324297407e-01
         - -2.2152971787755751e-01
         - -4.4611466422422164e-01
         - -3.7339929608382449e-02
         - -2.8148499304884549e-02
         - 2.7119849775293908e-01
         - -9.7208905293122719e-02
         - -4.4485449155983370e-01
         - -1.7006983830893085e-01
         - 1.4005677482340984e-01
         - 2.1842787101324281e-02
         - 2.6962057555515232e-02
         - 2.9162533820193809e-01
         - -1.2753346398708734e-01
         - -2.9485653878327628e-01
         - -4.9072530969437272e-01
         - -4.1901468842277023e-01
         - -2.7621196147037214e-01
         - -1.3757210189206129e-01
         - -1.2747113057966256e-01
         - -3.4610516311709549e-01
         - -9.3778593948359967e-02
         - 2.0271617236691397e-01
         - -1.7093891697225450e-01
         - -1.6365269981899960e-01
         - -2.3936674020659649e-02
         - -2.0464329896396530e-01
         - 5.4818917824718235e-03
         - 3.0420557968836859e-01
         - 3.2251094506853123e-01
         - -1.5799432705806635e-01
         - -2.0805664256596401e-01
         - -2.2259603631186076e-01
         - -3.9038685080754426e-01
         - -3.5084909618382148e-02
         - -5.4307212429238742e-02
         - 1.1867624182969883e-01
         - 2.7303144702083341e-02
         - 4.5846674397719628e-01
         - -3.0256110893358024e-01
         - -7.1509486567110606e-02
         - -6.7853393987857627e-02
         - -2.8159218023151844e-01
         - -8.4699865154852422e-02
         - -1.9851497263953247e-01
         - 5.7806582521058941e-02
         - -2.4898920154083684e-01
         - -1.3609688308828236e-01
         - 1.0695440725868773e-01
         - -1.6569168717423927e-01
         - -8.9678563443815099e-02
         - -3.0933293612254015e-01
         - -3.7617781631910491e-01
         - 2.0659477360927803e-01
         - 1.3313168610782036e-01
         - -3.1223986949101470e-03
         - 1.0389939719802048e-01
         - 1.7548476281041356e-01
         - 4.0607912803748460e-02
         - 1.5792373765464721e-02
         - -2.6357337699647604e-01
         - 1.2309523230924643e-01
         - -6.0800988847524847e-03
         - -4.8561151701492594e-01
         - -7.1357439666006703e-02
         - -1.4668402112551093e-01
         - 1.2800178185425476e-01
         - 7.2501696790604600e-02
         - -1.3214567031894842e-01
         - -1.1901486190309062e-01
         - 1.5489606420843907e-01
         - -2.1238654411621063e-01
         - 1.7789450523899170e-01
         - 1.0694576174727437e-01
         - 1.2379705344289332e-01
         - -4.8938009355110729e-01
         - 5.6612485122695899e-02
         - 7.1438974787200182e-02
         - 4.9113213798707409e-02
         - 2.1556277291498552e-01
         - 6.1562534782337891e-02
         - 2.6778584175971160e-01
         - 2.7807258193813639e-01
         - -6.6263508874398955e-02
         - 1.1397263294953301e-02
         - -2.0950640013376862e-02
         - 4.0617398920004888e-01
         - 8.7304569729893030e-03
         - 2.8524918763041851e-01
         - -1.5490693626160118e-01
         - 3.9501025176089544e-01
         - 1.5738546170617439e-02
         - -1.8015868506332935e-01
         - -5.8535558365837959e-02
         - -6.7248070705669492e-04
         - -4.0537473733976079e-02
         - 1.7484214418168662e-01
         - 6.2255548879152960e-02
         - 1.2053598129441039e-01
         - 1.8094618734038573e-02
         - 2.1525256735529780e-01
         - -1.1880461236576656e-01
         - 1.3756764063135127e-01
         - 3.1653569898189120e-02
         - -3.4683115420888649e-01
         - -1.6966597403935049e-01
         - -5.1992682678405990e-02
         - -1.2504683280879711e-01
         - -6.3385634607681400e-03
         - -1.8030452196248811e-01
         - -6.7044741185823806e-02
         - -2.7697287523267194e-01
         - 4.2790652428559250e-01
         - 5.8146427660219144e-02
         - -1.4642851541784804e-01
         - -4.2883597911131874e-02
         - -5.1386810850418277e-03
         - -1.1925788999104074e-01
         - -2.3368133781220207e-01
         - -2.6600948551977539e-02
         - -3.4443085148170099e-01
         - -2.3817268204527753e-01
         - 2.2093303798594646e-01
         - -2.0806288101941406e-01
         - -7.9701025392011279e-02
         - 2.9422046218972719e-01
         - 4.9635275479435953e-01
         - -6.8951078692374032e-02
         - 9.4035530412639512e-02
         - -9.2524524347005074e-02
         - 1.2912023772413606e-01
         - 1.2369447415315921e-02
         - 2.6158746770875037e-02
         - 2.9065385000935980e-02
         - 1.8701471477359691e-01
         - -2.7179766399165362e-01
         - 3.0240690578569923e-01
         - 7.3988967575023018e-02
         - 6.6041881848370426e-02
         - 6.2223321018506819e-02
         - 2.3626196532266150e-01
         - -1.2024039339130969e-01
         - 2.0912509780808805e-01
         - 5.2467203229611910e-02
         - -5.9522971734696187e-02
         - 4.4682641101450854e-01
         - 2.6546064277472375e-01
         - 1.7026152528336630e-01
         - 1.3616639543898237e-01
         - -8.3449386873053422e-02
         - -6.3336663499299073e-01
         - 4.5591486464864661e-01
         - -1.3447170611284667e-01
         - 1.1640154228124709e-01
         - 9.2753137543997477e-01
         - 2.2942193516074555e-01
         - 2.0914143227895166e-01
         - -4.5850941150435559e-02
         - 2.3572901044978081e-01
         - 5.6707000728769268e-02
         - -5.3430101611321712e-01
         - 6.8090572340072131e-01
         - 9.1844880955106109e-02
         - 3.2600716328041807e-01
         - -6.7254673794569142e-01
         - -3.1202129553399138e-01
         - 9.9196634173710319e-01
         - 2.6680523263087003e-01
         - 8.0910981234214618e-01
         - 2.7495049036420732e-01
         - 5.0199933558369236e-01
         - -2.6564794687662030e-01
         - -5.9030726716919252e-02
         - 3.0574015617105982e-01
         - 9.5947876643643917e-02
         - 8.7924381620033820e-01
         - 1.1636840072453130e+00
         - -9.3791651074595930e-02
         - -7.5803656796472052e-02
         - -4.7248290197160797e-01
         - 5.1748321410203996e-02
         - 2.3564689923536855e-01
         - 2.8345630915137526e-01
         - 1.3928606051645738e+00
         - -3.0445710248507885e-01
         - -5.4180512183253571e-01
         - 3.9223393314729799e-01
         - -2.8509300189578884e-01
         - -1.7262551740484175e-01
         - 8.2809023692624428e-01
         - 1.2412103576859074e-01
         - 1.5436433788574375e-01
         - -1.8453698949606159e-01
         - 4.5588302744527548e-01
         - 3.1170414923784884e-01
         - -5.6154979414051764e-01
         - 1.0439679338235361e+00
         - -4.6911212008862840e-01
         - -4.2078384179529271e-01
         - -2.2081060171003269e-01
         - 1.9624387842195201e-01
         - -3.5867175897824954e-01
         - 5.1906429062085639e-02
         - 1.3760134543454064e-01
         - 3.4496036454233836e-01
         - 7.9619845096399411e-01
         - 7.7046208815131328e-02
         - -2.4359047510616189e-01
         - -5.9808024182275121e-01
         - 8.2122235771761121e-01
         - 7.7623309499908466e-01
         - 3.8913972828765514e-01
         - -2.3380806462889037e-01
         - -5.7108759970391698e-01
         - -4.5142446631031652e-01
         - -1.0426273232467989e-02
         - -5.5632172303587302e-01
         - -9.2942765310064776e-02
         - -2.2354328560396852e-01
         - 1.7586345019252353e-01
         - -2.8054515803857910e-01
         - 6.1063520697010509e-01
         - -1.4254806288373054e-01
         - 8.6795892783215012e-01
         - 8.3412160269620383e-01
         - -5.5377198180302789e-01
         - 4.9358225819693230e-01
         - -5.7933598732862752e-02
         - -1.2012744298638887e+00
         - -4.4953979590399190e-01
         - 2.2638962486258457e-01
         - -4.5042050302327008e-01
         - 8.2022056523610026e-02
         - 9.2671354105778536e-01
         - -1.0538632630800596e-01
         - 1.3347061083782943e+00
         - 6.8862292353367383e-01
         - -1.1010302316428604e-01
         - 3.7183691776026706e-01
         - -7.5465042568475016e-01
         - -1.6785790230079758e-01
         - 6.8857006819916866e-01
         - 9.2575056304966694e-02
         - 1.5167604147410141e+00
         - -1.7044078550927915e-02
         - -9.6280036773917144e-01
         - -5.8211189164060220e-02
         - -4.0202500563331756e-01
         - 6.2229190382803751e-02
         - 9.2060938894337963e-01
         - -1.1746557085472087e-02
         - -8.5730641230827898e-01
         - -2.8688745263603904e-01
         - 5.3488260999537141e-01
         - -6.0758106101203135e-01
         - -9.8401607772904098e-01
         - -9.6546685830699142e-02
         - -5.8799419119003837e-01
         - -2.0846810329731108e-01
         - -4.5015582971168994e-01
         - 4.8760371907496175e-01
         - 3.7549881329221692e-02
         - -3.8757290211823114e-02
         - 5.7990704249599956e-01
         - -5.3114856614308725e-01
         - 1.1894910204965484e-01
         - -2.4072344565519338e-01
         - -1.5903945239450989e-02
         - -3.8456962138810342e-02
         - -3.3302159341089882e-01
         - -2.8724158048330500e-01
         - -1.4164533111042696e-01
         - -1.3393985110838230e-01
         - -4.2861778591426029e-02
         - -1.3043335300825940e+00
         - -6.1019429832227183e-02
         - 3.7387202477109283e-01
         - 7.0937695982502680e-01
         - -1.4873874527925196e-01
         - -6.1590248347717336e-01
         - 6.9311847217364705e-02
         - -7.7076275903770908e-01
         - -7.4776279108825075e-02
         - 2.6678790535993535e-01
         - 1.5247433250618874e+00
         - -2.7519439695766812e-01
         - -2.9916640081233009e-01
         - -6.1968969932050444e-01
         - 6.1968205756946937e-01
         - -2.3202018823088873e-02
         - -7.7259375692219556e-01
         - 4.4142597320305366e-01
         - 5.0686898169624661e-01
         - 6.6616800468900661e-01
         - -8.2233830184850698e-01
         - -3.4474122201701163e-01
         - -6.4432288541506411e-01
         - 2.6651336482324967e-01
         - 6.6125550225426211e-01
         - -2.2722272395799881e-02
         - 1.2261145987670576e-01
         - 9.4798718529432335e-02
         - 1.9118296580028143e-01
         - -6.5561129566479215e-01
         - -6.2750704211714761e-02
         - -2.7941001971973750e-01
         - 1.5960999638795687e-01
         - 5.5573409337143020e-01
         - 9.5623841730608353e-02
         - -8.7181907927541513e-01
         - -7.3226861980266733e-02
         - -4.4289696427399355e-01
         - -3.4200197103821839e-01
         - -1.7093884241382007e-01
         - -6.7618253958235253e-01
         - 3.3319724735098294e-01
         - -9.5766376645668150e-01
         - -1.2120895583950442e+00
         - 7.7077170764179592e-01
         - -1.2464128030060929e-02
         - -6.4102340036463001e-01
         - -2.0289779942708208e-01
         - -3.0951286537573236e-01
         - -6.5625684737170653e-01
         - -7.3405045759754783e-01
         - -3.8761861421026594e-01
         - 4.7081129165461416e-01
         - 3.9428930315714306e-01
         - 5.6361099975460283e-01
         - -5.3606141162451293e-01
         - -3.3615269335821141e-01
         - -3.7376488545714251e-02
         - 1.8010640868371280e-01
         - -1.6479479953993709e-01
         - -2.5944604886223133e-01
         - 4.1822751926994201e-01
         - 1.0043978537615073e-01
         - 1.3986435273119080e-01
         - -2.2732660549541975e-01
         - -7.9810679469026458e-01
         - -2.6632403421249295e-01
         - -1.8374070957239111e-01
         - 2.2547357697673406e-01
         - -5.8568991959875472e-01
         - 6.5385321510496719e-01
         - -6.2459311269086734e-03
         - 5.4760164267236830e-02
         - -4.0071727934096846e-01
         - 4.6026376228793514e-01
         - 2.3683524514291357e-01
         - -2.9295411691305440e-01
         - -6.1579145130733301e-02
         - 6.2696733889999312e-01
         - 1.0373696051202548e-01
         - -3.6949501567450166e-01
         - -7.1660200132412011e-01
         - -4.9150604680844828e-01
         - -9.1369376537755783e-03
         - -5.8498665442146269e-02
         - 1.4186753188794807e-01
         - 4.4784144955988014e-01
         - -4.9474273957957648e-01
         - 1.7486906881421632e-01
         - -2.6768181088697707e-01
         - 4.1991062603847929e-03
         - 5.3208985074668230e-02
         - 1.0770326194777403e-01
         - 3.0625168696141314e-01
         - 4.3635449799889592e-01
         - -1.2679822560214984e+00
         - 1.1467292446879002e-01
         - -3.2776563009770576e-01
         - -3.4599945909767676e-01
         - -4.2849888075797905e-02
         - -1.9779733267137306e-01
         - 3.8031907177141089e-01
         - -2.5852400529050734e-01
         - -4.4308392160196974e-01
         - 2.8501765913819538e-01
         - 4.5502111666584116e-01
         - -3.7275397670047078e-01
         - -3.0338725682469253e-01
         - -2.9458385133278137e-01
         - -5.7579702885660633e-01
         - -5.9338204170686459e-01
         - 1.8476986695356447e-02
         - 4.1326808543040006e-01
         - 5.1080340867610596e-01
         - 4.4065218623648156e-01
         - -1.0583025546171432e+00
         - 1.8496311628318862e-01
         - -3.8830556628749242e-02
         - 3.1031089841326509e-01
         - -3.5251673572394039e-02
         - 2.7219382308859963e-01
         - 2.8701818302647793e-02
         - -6.4185559380491281e-02
         - -8.5064110012870772e-02
         - -4.0803244858236204e-01
         - -1.0219286029952174e-01
         - -2.0777915064124619e-01
         - -1.6129013624033828e-01
         - -2.2717594374059344e-01
         - -1.5327661025450509e-01
         - -9.8381282400337791e-02
         - 3.7569484561708377e-01
         - 2.4733997404880415e-01
         - -1.4203153515295225e-01
         - 2.6797710557315318e-01
         - 9.0566038325588918e-02
         - 1.6576874168258063e-01
         - 9.8096192483417360e-02
         - 3.8674384135031781e-01
         - -2.7747943218953697e-01
         - -1.4972905721256499e-01
         - -2.1719122481038741e-01
         - -1.5721538016801465e-01
         - 2.5880379048703167e-01
         - -1.5849473900096817e-01
         - 1.4767633449809037e-01
         - -5.4469865613309888e-02
         - -2.0778913567334614e-01
         - -4.5847807739414898e-01
         - 2.3591454666628067e-02
         - 6.5598709549621714e-02
         - -1.4486919582461733e-01
         - -5.9663875693873922e-02
         - 1.6680175205212472e-01
         - 3.0947538335695374e-01
         - -1.7474138380484158e-01
         - 1.3105963173900290e-01
         - 4.7070962431623196e-02
         - -2.9198403345982549e-01
         - -5.6204028197934208e-01
         - 2.1284102686061046e-01
         - 8.8700307390287142e-02
         - 2.4210387222721527e-01
         - 2.6698796399993774e-01
         - -2.0922182421907975e-02
         - 2.8649114868678804e-01
         - -5.1977087589543802e-01
         - -8.5376395233352498e-02
         - 1.8956287383675274e-02
         - -7.2391574307838669e-01
         - -2.3217240803390599e-01
         - -5.6818351358893737e-01
         - -4.2069203195443189e-01
         - 6.8059729910496436e-01
         - -5.8679679847331793e-02
         - -5.0981695159073281e-01
         - -9.5428999566893480e-01
         - -4.6719015587326156e-02
         - -8.3855490504118904e-02
         - 1.9017604786974410e-01
         - 1.6684609411573399e+00
         - 4.0881837372824403e-01
         - -3.1836973362189880e-01
         - 3.4697039597479773e-01
         - -1.6394223871433755e-01
         - 2.5549976483791959e-01
         - -1.1481819401597093e-01
         - 6.0524718413961642e-01
         - 5.3935279805384240e-01
         - -3.8475741103821082e-01
         - -2.8261961838132421e-01
         - 1.5138337719891670e-01
         - 1.3302378506560029e+00
         - 9.8541071300937366e-01
         - 2.0584097626205511e-01
         - -2.2617437657983391e-02
         - 1.4350742347335096e-01
         - 4.2104265656981132e-01
         - 2.2106140348155365e-01
         - -1.8947371832227386e-01
         - 6.6376216461497106e-01
         - -3.0310961704476008e-01
         - 3.6619231515113293e-01
         - -3.7251655389724037e-01
         - -2.4499909454442786e-01
         - -2.8365863341725928e-01
         - -5.8762792147166301e-02
         - -2.3287387853036234e-01
         - 5.9281667959106311e-02
         - 9.0359076622813239e-01
         - 3.3683650724921979e-02
         - 2.1981215549443953e-01
         - -2.1153324275213317e-01
         - -2.7806505133602155e-01
         - -3.9479371225303539e-01
         - 3.4941068287210314e-01
         - -4.9373165191879420e-01
         - -5.4032798253520635e-02
         - -3.6062136209235146e-01
         - -4.9980666874890833e-02
         - -3.5110341068061168e-01
         - 1.2350687835651552e-02
         - 1.1597260244885155e+00
         - -1.3546269009782982e-01
         - -7.7017559921102124e-02
         - 6.2971078658035196e-02
         - -3.1069938573032155e-02
         - -7.2413321588939950e-01
         - 1.6852802920601626e-01
         - 6.8752946576326704e-02
         - 7.2873109293457672e-01
         - 1.6993023660718370e-01
         - -1.2015675505215440e+00
         - 5.0825726814297045e-01
         - -3.3634769285512886e-02
         - -5.1989072427522350e-03
         - -8.8345816240187530e-02
         - -1.9481969012541808e-01
         - -2.3963675751967548e-01
         - 6.2625238579503154e-02
         - 2.9840255483272476e-01
         - 1.3010880410183684e-01
         - -1.0942687849522051e-01
         - -4.5817652815048782e-01
         - -1.6217368214232342e-01
         - 9.6358787317402817e-03
         - -1.1823846900664975e-01
         - 2.0145240122062477e-01
         - -5.6441747658729013e-01
         - 4.5659726529598421e-01
         - -6.4826065625577678e-01
         - 1.2949934482918149e-01
         - 5.1321906036828846e-01
         - -9.2211497572290982e-02
         - 5.3766047084672225e-02
         - -3.8888792114491304e-02
         - -5.5165204100606526e-02
         - -1.5097241117384719e-01
         - -2.7173920351559622e-01
         - -1.5710017965897366e-01
         - 8.7821178534908964e-02
         - 3.5623291637259941e-02
         - 1.8371605903059243e-01
         - 2.6312325628129357e-01
         - 4.7775771723303007e-01
         - -2.2426686066737214e-01
         - 5.9773360484739968e-01
         - -7.0943945823013277e-01
         - -2.8355097939645652e-01
         - 1.0430952574016656e+00
         - 2.5082586775485538e-01
         - 3.6178529463791836e-01
         - -2.6919231350053968e-01
         - -3.2316818558573246e-01
         - 4.0386372897199610e-03
         - 1.9828362677016112e-01
         - -2.0117739117381894e-01
         - -9.0916265476137181e-02
         - -2.3280410740758484e-01
         - 3.7788365649760408e-01
         - -3.4830491210048477e-02
         - 4.5618506207259008e-01
         - 2.4309164123950003e-01
         - -1.0123968306109520e-01
         - 1.8205739808351711e-02
         - 3.7668377851715346e-01
         - 2.5851142153061391e-02
         - 1.8595055891076659e-01
         - 2.0858590044523395e-02
         - 2.1270002540686836e-01
         - -1.6064481688700043e-02
         - 1.3345708755062918e-01
         - -7.1298531188902378e-02
         - 1.7185300087495142e-01
         - 1.8354413003481163e-01
         - 2.3877629134999448e-01
         - 1.7651668223845229e-01
         - -2.8248914378964524e-01
         - -2.6640606690912239e-01
         - 2.2295048524325639e-01
         - 3.6239051586268012e-01
         - 1.0147833018561507e-01
         - -7.6012395816969569e-01
         - -3.6209129202119800e-01
         - 1.8674660829147191e-01
         - 1.8333821237500568e-02
         - 9.2188412346215651e-02
         - 1.5626896899622736e-01
         - -3.4837411258088057e-02
         - 2.3874332196258988e-01
         - 1.7387408771223456e-01
         - -7.7690620727882576e-01
         - 1.3260711330305427e-01
         - -2.0394091856669611e-01
         - -4.9846246026468999e-01
         - -1.1145551193461431e-01
         - 1.6113006988525949e-01
         - -4.1311231312611156e-02
         - 1.4101021977703559e-01
         - 1.0009536074396756e-01
         - -2.8530143690280557e-01
         - 4.6780784742628900e-01
         - -2.9039793104131084e-01
         - -1.7111629816087871e-02
         - -1.6240677455362817e-03
         - -1.4757856994278681e-01
         - -9.8459925467409577e-03
         - 7.0437904749528615e-02
         - 7.4665383722742062e-02
         - 4.7822344569194553e-01
         - -1.4386256250372051e-01
         - -1.6183636278418215e-01
         - -3.8133489419904243e-02
         - -2.4018633850119636e-01
         - -2.4197549464169213e-01
         - -2.4707767833653518e-01
         - 2.9441387975168265e-01
         - -5.6619281652430198e-01
         - 2.0780679981381930e-01
         - 3.8072687698397129e-01
         - 1.6593186663124695e-01
         - -5.4415196528471987e-01
         - 3.9182653216080038e-01
         - 1.2782215201202332e-01
         - -2.0674604068587463e-01
         - -9.7276467154344945e-02
         - 2.8788293670538001e-01
         - 9.3577688958054384e-01
         - 6.4377764206343988e-02
         - 1.6310114314154092e-01
         - 1.6392578518155668e-01
         - 3.1358528771239852e-01
         - 1.7512839692741655e-02
         - -3.0109623256063683e-01
         - 5.4468671899152232e-01
         - -6.9923266271129908e-02
         - -5.7381715534471037e-02
         - 3.7121708983243684e-02
         - 2.5166022232280205e-01
         - 4.3213358275791237e-02
         - -5.4107949109202080e-01
         - 6.0502888164943092e-02
         - 1.0343084722756036e-02
         - 3.0969341373506598e-01
         - 5.2195933488524837e-01
         - 7.5299019457198302e-01
         - 1.3859293204156969e-01
         - 6.8457004297967458e-02
         - 1.1705196793195705e-01
         - 5.8150770958540009e-02
         - 5.6280945146638106e-01
         - -3.2573878778365539e-01
         - -1.5190504733847696e-01
         - -1.0457578187715318e-01
         - -5.2098206992405771e-01
         - 1.4695051247108037e-01
         - 4.3585375475754823e-01
         - 4.9923310661798798e-01
         - -4.2267307726619480e-01
         - -3.4946779987976928e-01
         - -2.4221170816049445e-01
         - 4.6791474623232954e-01
         - 8.4572212703724961e-02
         - -1.3686160055271698e-01
         - 1.6204208083711685e-01
